svm_type one_class
kernel_type rbf
gamma 0.025000000000000001
nr_class 2
total_sv 7
rho 4.9462416703951329
SV
0.40972392794408957 1:0.17343173 2:-0.23247232 3:0.35424354 4:-0.35055351 5:0.47232472 6:-0.29520295 7:0.5904059 8:-0.29151292 9:0.46863469 10:-0.29520295 11:0.64944649 12:-0.35055351 13:0.58671587 14:-0.29520295 15:0.47232472 16:-0.23616236 17:0.46863469 18:-0.17343173 19:0.64944649 20:-0.23247232 21:0.58671587 22:-0.23247232 23:0.47232472 24:-0.23247232 25:0.47232472 26:-0.055350554 27:0.64575646 28:-0.17343173 29:0.53136531 30:-0.11808118 31:0.46863469 32:-0.11808118 33:0.47232472 34:0.05904059 35:0.5904059 36:-0.055350554 37:0.53136531 38:-0.055350554 39:0.52767528 40:-0.055350554 
1 1:0.12177122 2:-0.17712177 3:0.35424354 4:-0.35055351 5:0.47232472 6:-0.29520295 7:0.5904059 8:-0.29151292 9:0.41697417 10:-0.29151292 11:0.59409594 12:-0.35055351 13:0.5904059 14:-0.35055351 15:0.47601476 16:-0.29151292 17:0.47232472 18:-0.17343173 19:0.64944649 20:-0.23247232 21:0.5904059 22:-0.23247232 23:0.47601476 24:-0.23247232 25:0.47601476 26:-0.055350554 27:0.64944649 28:-0.17343173 29:0.53505535 30:-0.11808118 31:0.47601476 32:-0.11808118 33:0.47601476 34:0.0036900369 35:0.64944649 36:-0.055350554 37:0.5904059 38:-0.055350554 39:0.53136531 40:-0.055350554 
1 1:0.21875 2:-0.14285714 3:0.5 4:-0.20982143 5:0.57589286 6:-0.13839286 7:0.71875 8:-0.13839286 9:0.57142857 10:-0.20982143 11:0.79017857 12:-0.14285714 13:0.71875 14:-0.13839286 15:0.64285714 16:-0.13839286 17:0.57142857 18:-0.066964286 19:0.78571429 20:0 21:0.71428571 22:0 23:0.57589286 24:-0.066964286 25:0.50446429 26:0.075892857 27:0.71875 28:0.071428571 29:0.64285714 30:0.071428571 31:0.57142857 32:0.071428571 33:0.50446429 34:0.14732143 35:0.64732143 36:0.14732143 37:0.64285714 38:0.14732143 39:0.57142857 40:0.14285714 
1 1:0.20083682 2:-0.13389121 3:0.46443515 4:-0.20083682 5:0.59832636 6:-0.13807531 7:0.73221757 8:-0.13389121 9:0.53556485 10:-0.20083682 11:0.73640167 12:-0.20083682 13:0.66945607 14:-0.13807531 15:0.60251046 16:-0.13389121 17:0.53556485 18:-0.066945607 19:0.79916318 20:-0.0041841004 21:0.66945607 22:-0.0041841004 23:0.59832636 24:-0.066945607 25:0.53556485 26:0.066945607 27:0.73640167 28:0.062761506 29:0.66527197 30:0.062761506 31:0.59832636 32:0.066945607 33:0.53556485 34:0.19665272 35:0.73221757 36:0.19665272 37:0.66527197 38:0.13389121 39:0.59832636 40:0.13389121 
0.0086177040375340352 1:0.21524664 2:-0.14349776 3:0.43049327 4:-0.21524664 5:0.57399103 6:-0.14798206 7:0.71300448 8:-0.14349776 9:0.50224215 10:-0.21524664 11:0.78475336 12:-0.21524664 13:0.71300448 14:-0.14798206 15:0.57399103 16:-0.14349776 17:0.56950673 18:-0.0044843049 19:0.78475336 20:-0.0044843049 21:0.64573991 22:-0.0044843049 23:0.56950673 24:-0.071748879 25:0.56950673 26:0.13901345 27:0.78475336 28:0.067264574 29:0.64573991 30:0.067264574 31:0.56950673 32:0.067264574 33:0.56950673 34:0.21076233 35:0.71300448 36:0.14349776 37:0.64125561 38:0.14349776 39:0.56950673 40:0.14349776 
0.58165836801837645 1:0.15714286 2:-0.15238095 3:0.45714286 4:-0.23333333 5:0.60952381 6:-0.22857143 7:0.76190476 8:-0.15238095 9:0.53809524 10:-0.22857143 11:0.76666667 12:-0.15714286 13:0.69047619 14:-0.15714286 15:0.61428571 16:-0.15714286 17:0.53809524 18:-0.0047619048 19:0.76666667 20:-0.0047619048 21:0.61428571 22:-0.076190476 23:0.53333333 24:-0.076190476 25:0.53333333 26:0.14761905 27:0.68571429 28:0.071428571 29:0.53809524 30:0.071428571 31:0.45714286 32:0 33:0.45714286 34:0.22857143 35:0.53809524 36:0.22380952 37:0.46190476 38:0.15238095 39:0.38571429 40:0.14761905 
1 1:0.13333333 2:-0.19583333 3:0.33333333 4:-0.32916667 5:0.46666667 6:-0.32916667 7:0.6 8:-0.26666667 9:0.40416667 10:-0.26666667 11:0.60416667 12:-0.33333333 13:0.6 14:-0.32916667 15:0.47083333 16:-0.26666667 17:0.46666667 18:-0.13333333 19:0.66666667 20:-0.2 21:0.53333333 22:-0.2 23:0.40416667 24:-0.2 25:0.46666667 26:0 27:0.60416667 28:-0.13333333 29:0.53333333 30:-0.12916667 31:0.40416667 32:-0.12916667 33:0.46666667 34:0.066666667 35:0.5375 36:0 37:0.47083333 38:0 39:0.40416667 40:0 
