svm_type one_class
kernel_type rbf
gamma 0.025000000000000001
nr_class 2
total_sv 6
rho 4.9438157677650452
SV
1 1:0.17647059 2:-0.23529412 3:0.35294118 4:-0.35294118 5:0.47058824 6:-0.29411765 7:0.58823529 8:-0.29411765 9:0.47058824 10:-0.29411765 11:0.64705882 12:-0.35294118 13:0.58823529 14:-0.29411765 15:0.47058824 16:-0.23529412 17:0.47058824 18:-0.17647059 19:0.64705882 20:-0.23529412 21:0.58823529 22:-0.23529412 23:0.47058824 24:-0.23529412 25:0.47058824 26:-0.058823529 27:0.64705882 28:-0.17647059 29:0.52941176 30:-0.11764706 31:0.47058824 32:-0.11764706 33:0.47058824 34:0.058823529 35:0.58823529 36:-0.058823529 37:0.52941176 38:-0.058823529 39:0.52941176 40:-0.058823529 
1 1:0.11764706 2:-0.17647059 3:0.35294118 4:-0.35294118 5:0.47058824 6:-0.29411765 7:0.58823529 8:-0.29411765 9:0.41176471 10:-0.29411765 11:0.58823529 12:-0.35294118 13:0.58823529 14:-0.35294118 15:0.47058824 16:-0.29411765 17:0.47058824 18:-0.17647059 19:0.64705882 20:-0.23529412 21:0.58823529 22:-0.23529412 23:0.47058824 24:-0.23529412 25:0.47058824 26:-0.058823529 27:0.64705882 28:-0.17647059 29:0.52941176 30:-0.11764706 31:0.47058824 32:-0.11764706 33:0.47058824 34:0 35:0.64705882 36:-0.058823529 37:0.58823529 38:-0.058823529 39:0.52941176 40:-0.058823529 
1 1:0.2 2:-0.13333333 3:0.46666667 4:-0.2 5:0.6 6:-0.13333333 7:0.73333333 8:-0.13333333 9:0.53333333 10:-0.2 11:0.73333333 12:-0.2 13:0.66666667 14:-0.13333333 15:0.6 16:-0.13333333 17:0.53333333 18:-0.066666667 19:0.8 20:0 21:0.66666667 22:0 23:0.6 24:-0.066666667 25:0.53333333 26:0.066666667 27:0.73333333 28:0.066666667 29:0.66666667 30:0.066666667 31:0.6 32:0.066666667 33:0.53333333 34:0.2 35:0.73333333 36:0.2 37:0.66666667 38:0.13333333 39:0.6 40:0.13333333 
0.62597526761172539 1:0.21428571 2:-0.14285714 3:0.42857143 4:-0.21428571 5:0.57142857 6:-0.14285714 7:0.71428571 8:-0.14285714 9:0.5 10:-0.21428571 11:0.78571429 12:-0.21428571 13:0.71428571 14:-0.14285714 15:0.57142857 16:-0.14285714 17:0.57142857 18:0 19:0.78571429 20:0 21:0.64285714 22:0 23:0.57142857 24:-0.071428571 25:0.57142857 26:0.14285714 27:0.78571429 28:0.071428571 29:0.64285714 30:0.071428571 31:0.57142857 32:0.071428571 33:0.57142857 34:0.21428571 35:0.71428571 36:0.14285714 37:0.64285714 38:0.14285714 39:0.57142857 40:0.14285714 
1 1:0.15384615 2:-0.15384615 3:0.46153846 4:-0.23076923 5:0.61538462 6:-0.15384615 7:0.76923077 8:-0.15384615 9:0.53846154 10:-0.23076923 11:0.76923077 12:-0.15384615 13:0.69230769 14:-0.15384615 15:0.61538462 16:-0.15384615 17:0.53846154 18:0 19:0.76923077 20:0 21:0.61538462 22:-0.076923077 23:0.53846154 24:-0.076923077 25:0.53846154 26:0.15384615 27:0.69230769 28:0.076923077 29:0.53846154 30:0.076923077 31:0.46153846 32:0 33:0.46153846 34:0.23076923 35:0.53846154 36:0.23076923 37:0.46153846 38:0.15384615 39:0.38461538 40:0.15384615 
0.37402473238827461 1:0.13333333 2:-0.2 3:0.33333333 4:-0.33333333 5:0.46666667 6:-0.33333333 7:0.6 8:-0.26666667 9:0.4 10:-0.26666667 11:0.6 12:-0.33333333 13:0.6 14:-0.33333333 15:0.46666667 16:-0.26666667 17:0.46666667 18:-0.13333333 19:0.66666667 20:-0.2 21:0.53333333 22:-0.2 23:0.4 24:-0.2 25:0.46666667 26:0 27:0.6 28:-0.13333333 29:0.53333333 30:-0.13333333 31:0.4 32:-0.13333333 33:0.46666667 34:0.066666667 35:0.53333333 36:0 37:0.46666667 38:0 39:0.4 40:0 
