svm_type one_class
kernel_type rbf
gamma 0.025000000000000001
nr_class 2
total_sv 6
rho 4.9697781205177307
SV
1 1:0.10714286 2:-0.071428571 3:0.21428571 4:-0.14285714 5:0.28571429 6:-0.21428571 7:0.28571429 8:-0.25 9:0.14285714 10:-0.28571429 11:0.17857143 12:-0.5 13:0.21428571 14:-0.60714286 15:0.21428571 16:-0.71428571 17:0.10714286 18:-0.28571429 19:0.17857143 20:-0.46428571 21:0.21428571 22:-0.60714286 23:0.21428571 24:-0.71428571 25:0.071428571 26:-0.25 27:0.17857143 28:-0.39285714 29:0.25 30:-0.28571429 31:0.25 32:-0.21428571 33:0.071428571 34:-0.17857143 35:0.17857143 36:-0.28571429 37:0.21428571 38:-0.25 39:0.25 40:-0.21428571 
0.34911598657310894 1:0.086956522 2:-0.13043478 3:0.17391304 4:-0.26086957 5:0.2173913 6:-0.34782609 7:0.2173913 8:-0.34782609 9:0.043478261 10:-0.39130435 11:0.043478261 12:-0.56521739 13:0.043478261 14:-0.69565217 15:0.086956522 16:-0.7826087 17:0 18:-0.34782609 19:0.043478261 20:-0.56521739 21:0.043478261 22:-0.69565217 23:0.086956522 24:-0.7826087 25:-0.043478261 26:-0.30434783 27:0.043478261 28:-0.47826087 29:0.13043478 30:-0.39130435 31:0.13043478 32:-0.30434783 33:-0.043478261 34:-0.26086957 35:0 36:-0.34782609 37:0.086956522 38:-0.34782609 39:0.13043478 40:-0.30434783 
1 1:0.076923077 2:-0.076923077 3:0.19230769 4:-0.19230769 5:0.26923077 6:-0.19230769 7:0.30769231 8:-0.26923077 9:0.11538462 10:-0.30769231 11:0.11538462 12:-0.46153846 13:0.15384615 14:-0.57692308 15:0.19230769 16:-0.69230769 17:0.076923077 18:-0.26923077 19:0.11538462 20:-0.46153846 21:0.19230769 22:-0.57692308 23:0.19230769 24:-0.69230769 25:0.076923077 26:-0.23076923 27:0.19230769 28:-0.38461538 29:0.19230769 30:-0.38461538 31:0.23076923 32:-0.26923077 33:0.076923077 34:-0.15384615 35:0.19230769 36:-0.23076923 37:0.26923077 38:-0.23076923 39:0.30769231 40:-0.26923077 
0.65088401342689106 1:0.083333333 2:-0.083333333 3:0.20833333 4:-0.125 5:0.25 6:-0.16666667 7:0.29166667 8:-0.20833333 9:0.125 10:-0.33333333 11:0.125 12:-0.5 13:0.125 14:-0.58333333 15:0.125 16:-0.70833333 17:0.083333333 18:-0.29166667 19:0.125 20:-0.45833333 21:0.125 22:-0.58333333 23:0.16666667 24:-0.70833333 25:0.041666667 26:-0.25 27:0.16666667 28:-0.33333333 29:0.20833333 30:-0.29166667 31:0.16666667 32:-0.20833333 33:0.041666667 34:-0.16666667 35:0.16666667 36:-0.20833333 37:0.20833333 38:-0.16666667 39:0.29166667 40:-0.20833333 
1 1:0.090909091 2:-0.13636364 3:0.13636364 4:-0.22727273 5:0.18181818 6:-0.31818182 7:0.18181818 8:-0.36363636 9:0.045454545 10:-0.40909091 11:0.045454545 12:-0.54545455 13:0.045454545 14:-0.68181818 15:0.045454545 16:-0.81818182 17:0 18:-0.36363636 19:0.045454545 20:-0.54545455 21:0.045454545 22:-0.68181818 23:0.045454545 24:-0.81818182 25:-0.045454545 26:-0.31818182 27:0.045454545 28:-0.5 29:0.13636364 30:-0.36363636 31:0.13636364 32:-0.31818182 33:-0.045454545 34:-0.27272727 35:0.045454545 36:-0.36363636 37:0.090909091 38:-0.36363636 39:0.13636364 40:-0.31818182 
1 1:0.090909091 2:-0.13636364 3:0.13636364 4:-0.27272727 5:0.18181818 6:-0.36363636 7:0.18181818 8:-0.40909091 9:0.045454545 10:-0.40909091 11:0.045454545 12:-0.54545455 13:0.045454545 14:-0.72727273 15:0.045454545 16:-0.81818182 17:-0.045454545 18:-0.36363636 19:0.045454545 20:-0.54545455 21:0.045454545 22:-0.68181818 23:0.045454545 24:-0.77272727 25:-0.045454545 26:-0.31818182 27:0.090909091 28:-0.5 29:0.13636364 30:-0.40909091 31:0.13636364 32:-0.36363636 33:0 34:-0.27272727 35:0.090909091 36:-0.40909091 37:0.13636364 38:-0.40909091 39:0.18181818 40:-0.36363636 
