svm_type one_class
kernel_type rbf
gamma 0.025000000000000001
nr_class 2
total_sv 6
rho 4.9711981415748596
SV
1 1:0.10690423 2:-0.071269488 3:0.21380846 4:-0.14253898 5:0.28507795 6:-0.21380846 7:0.28285078 8:-0.25167038 9:0.14253898 10:-0.28730512 11:0.17594655 12:-0.49888641 13:0.21158129 14:-0.60801782 15:0.21158129 16:-0.71492205 17:0.10467706 18:-0.28730512 19:0.17594655 20:-0.46547884 21:0.21158129 22:-0.60579065 23:0.21380846 24:-0.71269488 25:0.071269488 26:-0.24944321 27:0.17594655 28:-0.39420935 29:0.24721604 30:-0.28730512 31:0.24721604 32:-0.21380846 33:0.071269488 34:-0.18040089 35:0.17594655 36:-0.28507795 37:0.21380846 38:-0.25167038 39:0.24721604 40:-0.21380846 
0.36857783871370042 1:0.089673913 2:-0.13043478 3:0.17391304 4:-0.25815217 5:0.2173913 6:-0.3451087 7:0.2173913 8:-0.3451087 9:0.046195652 10:-0.39130435 11:0.043478261 12:-0.5625 13:0.046195652 14:-0.69293478 15:0.086956522 16:-0.7826087 17:0.0027173913 18:-0.34782609 19:0.043478261 20:-0.5625 21:0.046195652 22:-0.69293478 23:0.086956522 24:-0.7826087 25:-0.04076087 26:-0.30434783 27:0.043478261 28:-0.47554348 29:0.13043478 30:-0.38858696 31:0.13315217 32:-0.30434783 33:-0.04076087 34:-0.25815217 35:0 36:-0.3451087 37:0.086956522 38:-0.34782609 39:0.13315217 40:-0.30434783 
1 1:0.079136691 2:-0.079136691 3:0.1942446 4:-0.19184652 5:0.26858513 6:-0.1942446 7:0.30695444 8:-0.26858513 9:0.11510791 10:-0.30935252 11:0.117506 12:-0.46282974 13:0.1558753 14:-0.57793765 15:0.1942446 16:-0.69304556 17:0.076738609 18:-0.27098321 19:0.117506 20:-0.46282974 21:0.19184652 22:-0.57793765 23:0.1942446 24:-0.69304556 25:0.076738609 26:-0.23261391 27:0.19184652 28:-0.38369305 29:0.19184652 30:-0.38369305 31:0.23021583 32:-0.23261391 33:0.079136691 34:-0.1558753 35:0.19184652 36:-0.23261391 37:0.26858513 38:-0.23261391 39:0.30695444 40:-0.26858513 
0.63142216128629958 1:0.083333333 2:-0.083333333 3:0.20833333 4:-0.12760417 5:0.25 6:-0.16927083 7:0.2890625 8:-0.20833333 9:0.12239583 10:-0.33333333 11:0.12239583 12:-0.5 13:0.125 14:-0.5859375 15:0.125 16:-0.7109375 17:0.080729167 18:-0.29166667 19:0.12239583 20:-0.4609375 21:0.125 22:-0.5859375 23:0.1640625 24:-0.7109375 25:0.041666667 26:-0.25 27:0.16666667 28:-0.3359375 29:0.20833333 30:-0.29166667 31:0.16666667 32:-0.2109375 33:0.041666667 34:-0.16666667 35:0.1640625 36:-0.20833333 37:0.20572917 38:-0.16927083 39:0.2890625 40:-0.20833333 
1 1:0.090909091 2:-0.13352273 3:0.13920455 4:-0.22727273 5:0.18465909 6:-0.31818182 7:0.18465909 8:-0.36079545 9:0.048295455 10:-0.40625 11:0.045454545 12:-0.54545455 13:0.045454545 14:-0.68181818 15:0.045454545 16:-0.81534091 17:0 18:-0.36363636 19:0.045454545 20:-0.54545455 21:0.045454545 22:-0.68181818 23:0.045454545 24:-0.81534091 25:-0.042613636 26:-0.31818182 27:0.048295455 28:-0.49715909 29:0.13636364 30:-0.36363636 31:0.13636364 32:-0.31534091 33:-0.042613636 34:-0.27272727 35:0.045454545 36:-0.36363636 37:0.09375 38:-0.36079545 39:0.13920455 40:-0.31534091 
1 1:0.090651558 2:-0.13597734 3:0.1388102 4:-0.26912181 5:0.18413598 6:-0.35977337 7:0.18413598 8:-0.40793201 9:0.045325779 10:-0.40509915 11:0.045325779 12:-0.54390935 13:0.04815864 14:-0.7223796 15:0.04815864 16:-0.81586402 17:-0.042492918 18:-0.36260623 19:0.045325779 20:-0.54390935 21:0.04815864 22:-0.67988669 23:0.04815864 24:-0.77053824 25:-0.042492918 26:-0.31728045 27:0.090651558 28:-0.49575071 29:0.13597734 30:-0.40793201 31:0.13597734 32:-0.36260623 33:0 34:-0.27195467 35:0.090651558 36:-0.40509915 37:0.13597734 38:-0.40509915 39:0.18130312 40:-0.36260623 
