svm_type one_class
kernel_type rbf
gamma 0.025000000000000001
nr_class 2
total_sv 7
rho 4.9636184428651138
SV
0.33657448133268403 1:0.12727273 2:0 3:0.25194805 4:-0.038961039 5:0.41558442 6:-0.16623377 7:0.45974026 8:-0.29090909 9:0.29090909 10:-0.24675325 11:0.37402597 12:-0.33246753 13:0.45974026 14:-0.41558442 15:0.45714286 16:-0.33246753 17:0.16883117 18:-0.24935065 19:0.12467532 20:-0.54025974 21:0.16883117 22:-0.41558442 23:0.24935065 24:-0.29090909 25:0.083116883 26:-0.24935065 27:0.044155844 28:-0.28831169 29:0.044155844 30:-0.20779221 31:0.085714286 32:-0.083116883 33:-0.041558442 34:-0.24675325 35:-0.041558442 36:-0.24675325 37:-0.038961039 38:-0.12207792 39:0 40:-0.080519481 
0.36175257501848074 1:0.13315217 2:0 3:0.26358696 4:-0.043478261 5:0.39130435 6:-0.21467391 7:0.47826087 8:-0.30434783 9:0.26358696 10:-0.2173913 11:0.35054348 12:-0.38858696 13:0.4375 14:-0.43478261 15:0.39402174 16:-0.34782609 17:0.17391304 18:-0.26086957 19:0.089673913 20:-0.52173913 21:0.17663043 22:-0.39130435 23:0.26358696 24:-0.25815217 25:0.046195652 26:-0.25815217 27:0.046195652 28:-0.26086957 29:0.089673913 30:-0.17119565 31:0.13043478 32:-0.043478261 33:-0.043478261 34:-0.21467391 35:-0.043478261 36:-0.21467391 37:0 38:-0.08423913 39:0.043478261 40:-0.04076087 
1 1:0.125 2:0.0390625 3:0.25 4:0.0390625 5:0.4140625 6:-0.083333333 7:0.5 8:-0.16666667 9:0.33333333 10:-0.125 11:0.41666667 12:-0.2109375 13:0.54166667 14:-0.25260417 15:0.5 16:-0.2109375 17:0.25 18:-0.16666667 19:0.29166667 20:-0.29166667 21:0.29166667 22:-0.41666667 23:0.29166667 24:-0.45833333 25:0.1640625 26:-0.20833333 27:0.1640625 28:-0.20833333 29:0.125 30:-0.083333333 31:0.12239583 32:-0.083333333 33:0.041666667 34:-0.20833333 35:0.0390625 36:-0.20833333 37:0.041666667 38:-0.0859375 39:0.041666667 40:-0.083333333 
1 1:0.10280374 2:0 3:0.24922118 4:-0.052959502 5:0.35202492 6:-0.20249221 7:0.40186916 8:-0.34890966 9:0.20249221 10:-0.25233645 11:0.39875389 12:-0.40186916 13:0.44859813 14:-0.44859813 15:0.40186916 16:-0.35202492 17:0.14953271 18:-0.29906542 19:0.14953271 20:-0.55140187 21:0.20249221 22:-0.4517134 23:0.29906542 24:-0.34890966 25:0.0031152648 26:-0.25233645 27:0.052959502 28:-0.25233645 29:0.099688474 30:-0.19937695 31:0.10280374 32:-0.10280374 33:-0.096573209 34:-0.19937695 35:-0.096573209 36:-0.20249221 37:-0.046728972 38:-0.15264798 39:0.0031152648 40:-0.099688474 
0.30167294364883529 1:0.20833333 2:-0.041666667 3:0.33333333 4:-0.083333333 5:0.45572917 6:-0.24739583 7:0.5 8:-0.33333333 9:0.33072917 10:-0.24739583 11:0.45572917 12:-0.45572917 13:0.49739583 14:-0.45833333 15:0.49739583 16:-0.4140625 17:0.24739583 18:-0.25 19:0.20572917 20:-0.5 21:0.2890625 22:-0.375 23:0.37239583 24:-0.2890625 25:0.1640625 26:-0.24739583 27:0.1640625 28:-0.2890625 29:0.16666667 30:-0.20572917 31:0.24739583 32:-0.083333333 33:0.083333333 34:-0.16666667 35:0.041666667 36:-0.20833333 37:0.083333333 38:-0.1640625 39:0.125 40:-0.041666667 
1 1:0.16065574 2:0.049180328 3:0.31803279 4:0.049180328 5:0.47213115 6:-0.052459016 7:0.52786885 8:-0.10819672 9:0.3704918 10:-0.20983607 11:0.58032787 12:-0.36721311 13:0.58032787 14:-0.26229508 15:0.52459016 16:-0.15737705 17:0.26557377 18:-0.20983607 19:0.26557377 20:-0.41967213 21:0.31803279 22:-0.20983607 23:0.36721311 24:-0.10491803 25:0.15737705 26:-0.16065574 27:0.15737705 28:-0.21311475 29:0.16065574 30:-0.10491803 31:0.16065574 32:-0.0032786885 33:0.0032786885 34:-0.15737705 35:0.0032786885 36:-0.16065574 37:0.052459016 38:0 39:0.055737705 40:0.049180328 
1 1:0.19104478 2:0.047761194 3:0.33432836 4:0 5:0.47761194 6:-0.14029851 7:0.52835821 8:-0.19104478 9:0.33731343 10:-0.2358209 11:0.52537313 12:-0.37910448 13:0.57313433 14:-0.33432836 15:0.57313433 16:-0.28358209 17:0.24179104 18:-0.28358209 19:0.33432836 20:-0.42686567 21:0.42985075 22:-0.28656716 23:0.42985075 24:-0.19104478 25:0.14626866 26:-0.2358209 27:0.19402985 28:-0.23880597 29:0.23880597 30:-0.095522388 31:0.23880597 32:-0.044776119 33:0.050746269 34:-0.1880597 35:0.095522388 36:-0.1880597 37:0.14626866 38:-0.092537313 39:0.14626866 40:0 
