svm_type one_class
kernel_type rbf
gamma 0.025000000000000001
nr_class 2
total_sv 7
rho 4.9634858368372425
SV
0.26012495323488599 1:0.125 2:0 3:0.25 4:-0.041666667 5:0.41666667 6:-0.16666667 7:0.45833333 8:-0.29166667 9:0.29166667 10:-0.25 11:0.375 12:-0.33333333 13:0.45833333 14:-0.41666667 15:0.45833333 16:-0.33333333 17:0.16666667 18:-0.25 19:0.125 20:-0.54166667 21:0.16666667 22:-0.41666667 23:0.25 24:-0.29166667 25:0.083333333 26:-0.25 27:0.041666667 28:-0.29166667 29:0.041666667 30:-0.20833333 31:0.083333333 32:-0.083333333 33:-0.041666667 34:-0.25 35:-0.041666667 36:-0.25 37:-0.041666667 38:-0.125 39:0 40:-0.083333333 
0.40251651880658723 1:0.13043478 2:0 3:0.26086957 4:-0.043478261 5:0.39130435 6:-0.2173913 7:0.47826087 8:-0.30434783 9:0.26086957 10:-0.2173913 11:0.34782609 12:-0.39130435 13:0.43478261 14:-0.43478261 15:0.39130435 16:-0.34782609 17:0.17391304 18:-0.26086957 19:0.086956522 20:-0.52173913 21:0.17391304 22:-0.39130435 23:0.26086957 24:-0.26086957 25:0.043478261 26:-0.26086957 27:0.043478261 28:-0.26086957 29:0.086956522 30:-0.17391304 31:0.13043478 32:-0.043478261 33:-0.043478261 34:-0.2173913 35:-0.043478261 36:-0.2173913 37:0 38:-0.086956522 39:0.043478261 40:-0.043478261 
1 1:0.125 2:0.041666667 3:0.25 4:0.041666667 5:0.41666667 6:-0.083333333 7:0.5 8:-0.16666667 9:0.33333333 10:-0.125 11:0.41666667 12:-0.20833333 13:0.54166667 14:-0.25 15:0.5 16:-0.20833333 17:0.25 18:-0.16666667 19:0.29166667 20:-0.29166667 21:0.29166667 22:-0.41666667 23:0.29166667 24:-0.45833333 25:0.16666667 26:-0.20833333 27:0.16666667 28:-0.20833333 29:0.125 30:-0.083333333 31:0.125 32:-0.083333333 33:0.041666667 34:-0.20833333 35:0.041666667 36:-0.20833333 37:0.041666667 38:-0.083333333 39:0.041666667 40:-0.083333333 
1 1:0.1 2:0 3:0.25 4:-0.05 5:0.35 6:-0.2 7:0.4 8:-0.35 9:0.2 10:-0.25 11:0.4 12:-0.4 13:0.45 14:-0.45 15:0.4 16:-0.35 17:0.15 18:-0.3 19:0.15 20:-0.55 21:0.2 22:-0.45 23:0.3 24:-0.35 25:0 26:-0.25 27:0.05 28:-0.25 29:0.1 30:-0.2 31:0.1 32:-0.1 33:-0.1 34:-0.2 35:-0.1 36:-0.2 37:-0.05 38:-0.15 39:0 40:-0.1 
0.42472129211256288 1:0.20833333 2:-0.041666667 3:0.33333333 4:-0.083333333 5:0.45833333 6:-0.25 7:0.5 8:-0.33333333 9:0.33333333 10:-0.25 11:0.45833333 12:-0.45833333 13:0.5 14:-0.45833333 15:0.5 16:-0.41666667 17:0.25 18:-0.25 19:0.20833333 20:-0.5 21:0.29166667 22:-0.375 23:0.375 24:-0.29166667 25:0.16666667 26:-0.25 27:0.16666667 28:-0.29166667 29:0.16666667 30:-0.20833333 31:0.25 32:-0.083333333 33:0.083333333 34:-0.16666667 35:0.041666667 36:-0.20833333 37:0.083333333 38:-0.16666667 39:0.125 40:-0.041666667 
1 1:0.15789474 2:0.052631579 3:0.31578947 4:0.052631579 5:0.47368421 6:-0.052631579 7:0.52631579 8:-0.10526316 9:0.36842105 10:-0.21052632 11:0.57894737 12:-0.36842105 13:0.57894737 14:-0.26315789 15:0.52631579 16:-0.15789474 17:0.26315789 18:-0.21052632 19:0.26315789 20:-0.42105263 21:0.31578947 22:-0.21052632 23:0.36842105 24:-0.10526316 25:0.15789474 26:-0.15789474 27:0.15789474 28:-0.21052632 29:0.15789474 30:-0.10526316 31:0.15789474 32:0 33:0 34:-0.15789474 35:0 36:-0.15789474 37:0.052631579 38:0 39:0.052631579 40:0.052631579 
0.9126372358459639 1:0.19047619 2:0.047619048 3:0.33333333 4:0 5:0.47619048 6:-0.14285714 7:0.52380952 8:-0.19047619 9:0.33333333 10:-0.23809524 11:0.52380952 12:-0.38095238 13:0.57142857 14:-0.33333333 15:0.57142857 16:-0.28571429 17:0.23809524 18:-0.28571429 19:0.33333333 20:-0.42857143 21:0.42857143 22:-0.28571429 23:0.42857143 24:-0.19047619 25:0.14285714 26:-0.23809524 27:0.19047619 28:-0.23809524 29:0.23809524 30:-0.095238095 31:0.23809524 32:-0.047619048 33:0.047619048 34:-0.19047619 35:0.095238095 36:-0.19047619 37:0.14285714 38:-0.095238095 39:0.14285714 40:0 
