svm_type one_class
kernel_type rbf
gamma 0.025000000000000001
nr_class 2
total_sv 7
rho 4.9751447825408102
SV
1 1:0.045454545 2:-0.13636364 3:0.090909091 4:-0.27272727 5:0.13636364 6:-0.40909091 7:0.13636364 8:-0.45454545 9:0.045454545 10:-0.45454545 11:0.045454545 12:-0.59090909 13:0.045454545 14:-0.72727273 15:0.045454545 16:-0.86363636 17:0.045454545 18:-0.45454545 19:0.045454545 20:-0.63636364 21:0.045454545 22:-0.77272727 23:0.045454545 24:-0.86363636 25:0.045454545 26:-0.40909091 27:0.045454545 28:-0.59090909 29:0.045454545 30:-0.68181818 31:0.090909091 32:-0.81818182 33:0.045454545 34:-0.36363636 35:0.045454545 36:-0.54545455 37:0.045454545 38:-0.59090909 39:0.045454545 40:-0.68181818 
0.29298864816831249 1:0.090909091 2:-0.045454545 3:0.13636364 4:-0.18181818 5:0.18181818 6:-0.31818182 7:0.18181818 8:-0.36363636 9:0.045454545 10:-0.36363636 11:0.090909091 12:-0.54545455 13:0.090909091 14:-0.68181818 15:0.045454545 16:-0.81818182 17:0.045454545 18:-0.40909091 19:0.045454545 20:-0.59090909 21:0.045454545 22:-0.72727273 23:0.045454545 24:-0.81818182 25:0.045454545 26:-0.36363636 27:0.045454545 28:-0.54545455 29:0.045454545 30:-0.68181818 31:0.090909091 32:-0.77272727 33:0.045454545 34:-0.36363636 35:0.090909091 36:-0.5 37:0.045454545 38:-0.59090909 39:0.045454545 40:-0.63636364 
0.13032471117543939 1:0.045454545 2:-0.045454545 3:0.13636364 4:-0.22727273 5:0.18181818 6:-0.31818182 7:0.18181818 8:-0.36363636 9:0.090909091 10:-0.40909091 11:0.090909091 12:-0.54545455 13:0.090909091 14:-0.68181818 15:0.090909091 16:-0.81818182 17:0.045454545 18:-0.40909091 19:0.045454545 20:-0.59090909 21:0.090909091 22:-0.72727273 23:0.090909091 24:-0.81818182 25:0.090909091 26:-0.40909091 27:0.045454545 28:-0.54545455 29:0.090909091 30:-0.68181818 31:0.090909091 32:-0.81818182 33:0.045454545 34:-0.36363636 35:0.090909091 36:-0.54545455 37:0.045454545 38:-0.59090909 39:0.090909091 40:-0.68181818 
1 1:0.083333333 2:-0.041666667 3:0.16666667 4:-0.16666667 5:0.20833333 6:-0.25 7:0.29166667 8:-0.29166667 9:0.125 10:-0.29166667 11:0.16666667 12:-0.45833333 13:0.16666667 14:-0.58333333 15:0.16666667 16:-0.70833333 17:0.125 18:-0.29166667 19:0.16666667 20:-0.45833333 21:0.16666667 22:-0.58333333 23:0.16666667 24:-0.70833333 25:0.125 26:-0.25 27:0.125 28:-0.41666667 29:0.16666667 30:-0.54166667 31:0.16666667 32:-0.66666667 33:0.083333333 34:-0.20833333 35:0.125 36:-0.33333333 37:0.125 38:-0.375 39:0.125 40:-0.5 
0.57668664065624808 1:0.08 2:-0.08 3:0.16 4:-0.16 5:0.24 6:-0.28 7:0.28 8:-0.28 9:0.16 10:-0.32 11:0.16 12:-0.48 13:0.16 14:-0.56 15:0.16 16:-0.68 17:0.12 18:-0.32 19:0.12 20:-0.48 21:0.12 22:-0.64 23:0.12 24:-0.72 25:0.12 26:-0.32 27:0.12 28:-0.48 29:0.12 30:-0.56 31:0.16 32:-0.68 33:0.12 34:-0.32 35:0.12 36:-0.44 37:0.12 38:-0.52 39:0.16 40:-0.64 
1 1:0.08 2:-0.04 3:0.2 4:-0.16 5:0.24 6:-0.28 7:0.24 8:-0.32 9:0.16 10:-0.32 11:0.16 12:-0.48 13:0.16 14:-0.6 15:0.16 16:-0.72 17:0.16 18:-0.32 19:0.16 20:-0.48 21:0.16 22:-0.64 23:0.16 24:-0.76 25:0.12 26:-0.28 27:0.16 28:-0.44 29:0.16 30:-0.56 31:0.16 32:-0.68 33:0.08 34:-0.24 35:0.12 36:-0.4 37:0.12 38:-0.48 39:0.16 40:-0.52 
1 1:0.045454545 2:-0.045454545 3:0.13636364 4:-0.18181818 5:0.18181818 6:-0.31818182 7:0.18181818 8:-0.36363636 9:0.090909091 10:-0.40909091 11:0.090909091 12:-0.59090909 13:0.090909091 14:-0.68181818 15:0.090909091 16:-0.81818182 17:0.090909091 18:-0.40909091 19:0.045454545 20:-0.59090909 21:0.090909091 22:-0.72727273 23:0.090909091 24:-0.81818182 25:0.090909091 26:-0.40909091 27:0.045454545 28:-0.59090909 29:0.090909091 30:-0.72727273 31:0.090909091 32:-0.81818182 33:0.090909091 34:-0.36363636 35:0.090909091 36:-0.54545455 37:0.045454545 38:-0.59090909 39:0 40:-0.63636364 
