svm_type one_class
kernel_type rbf
gamma 0.025000000000000001
nr_class 2
total_sv 6
rho 4.9758082628250122
SV
1 1:0.04815864 2:-0.13314448 3:0.093484419 4:-0.27195467 5:0.1388102 6:-0.40509915 7:0.1388102 8:-0.45042493 9:0.045325779 10:-0.45042493 11:0.04815864 12:-0.58923513 13:0.04815864 14:-0.72521246 15:0.04815864 16:-0.85835694 17:0.045325779 18:-0.45042493 19:0.04815864 20:-0.63172805 21:0.04815864 22:-0.76770538 23:0.04815864 24:-0.8611898 25:0.045325779 26:-0.40793201 27:0.045325779 28:-0.58640227 29:0.04815864 30:-0.67988669 31:0.090651558 32:-0.81586402 33:0.045325779 34:-0.36260623 35:0.045325779 36:-0.54107649 37:0.045325779 38:-0.58923513 39:0.04815864 40:-0.67705382 
0.48624839461534392 1:0.088068182 2:-0.048295455 3:0.13636364 4:-0.18465909 5:0.17897727 6:-0.31818182 7:0.17897727 8:-0.36647727 9:0.045454545 10:-0.36647727 11:0.088068182 12:-0.54829545 13:0.088068182 14:-0.68465909 15:0.045454545 16:-0.81818182 17:0.045454545 18:-0.40909091 19:0.045454545 20:-0.59090909 21:0.045454545 22:-0.72727273 23:0.045454545 24:-0.82102273 25:0.045454545 26:-0.36647727 27:0.045454545 28:-0.54829545 29:0.045454545 30:-0.68465909 31:0.088068182 32:-0.77556818 33:0.045454545 34:-0.36363636 35:0.088068182 36:-0.5 37:0.045454545 38:-0.59090909 39:0.045454545 40:-0.63920455 
1 1:0.083116883 2:-0.044155844 3:0.16623377 4:-0.16623377 5:0.21038961 6:-0.25194805 7:0.29090909 8:-0.29090909 9:0.12727273 10:-0.29350649 11:0.16623377 12:-0.45714286 13:0.16883117 14:-0.58181818 15:0.16623377 16:-0.70649351 17:0.12727273 18:-0.29350649 19:0.16623377 20:-0.45974026 21:0.16883117 22:-0.58441558 23:0.16883117 24:-0.70909091 25:0.12467532 26:-0.25194805 27:0.12727273 28:-0.41818182 29:0.16623377 30:-0.54025974 31:0.16623377 32:-0.66493506 33:0.085714286 34:-0.21038961 35:0.12467532 36:-0.33506494 37:0.12467532 38:-0.37662338 39:0.12467532 40:-0.4987013 
0.51375160538465603 1:0.080200501 2:-0.077694236 3:0.160401 4:-0.160401 5:0.23809524 6:-0.27819549 7:0.27819549 8:-0.27819549 9:0.15789474 10:-0.31829574 11:0.15789474 12:-0.47869674 13:0.15789474 14:-0.56140351 15:0.160401 16:-0.67919799 17:0.12030075 18:-0.32080201 19:0.12030075 20:-0.48120301 21:0.12030075 22:-0.63909774 23:0.12030075 24:-0.72180451 25:0.12030075 26:-0.31829574 27:0.12030075 28:-0.47869674 29:0.12030075 30:-0.56140351 31:0.15789474 32:-0.67919799 33:0.11779449 34:-0.31829574 35:0.12030075 36:-0.43859649 37:0.12030075 38:-0.51879699 39:0.160401 40:-0.63909774 
1 1:0.08 2:-0.0425 3:0.1975 4:-0.1625 5:0.24 6:-0.28 7:0.24 8:-0.32 9:0.16 10:-0.32 11:0.1575 12:-0.48 13:0.16 14:-0.6 15:0.1575 16:-0.72 17:0.1575 18:-0.32 19:0.1575 20:-0.48 21:0.1575 22:-0.64 23:0.1575 24:-0.76 25:0.12 26:-0.28 27:0.1575 28:-0.4425 29:0.1575 30:-0.5625 31:0.1575 32:-0.6825 33:0.08 34:-0.2425 35:0.1175 36:-0.4 37:0.12 38:-0.48 39:0.1575 40:-0.5225 
1 1:0.04815864 2:-0.045325779 3:0.1388102 4:-0.18130312 5:0.18413598 6:-0.31444759 7:0.18413598 8:-0.35977337 9:0.090651558 10:-0.40509915 11:0.090651558 12:-0.58640227 13:0.093484419 14:-0.67988669 15:0.090651558 16:-0.81303116 17:0.090651558 18:-0.40793201 19:0.04815864 20:-0.58923513 21:0.090651558 22:-0.72521246 23:0.090651558 24:-0.81586402 25:0.090651558 26:-0.40509915 27:0.04815864 28:-0.58640227 29:0.090651558 30:-0.7223796 31:0.093484419 32:-0.81303116 33:0.090651558 34:-0.36260623 35:0.090651558 36:-0.54107649 37:0.045325779 38:-0.58923513 39:0.0028328612 40:-0.63456091 
