svm_type one_class
kernel_type rbf
gamma 0.025000000000000001
nr_class 2
total_sv 6
rho 4.9083850979804993
SV
1 1:0.21052632 2:-0.10526316 3:0.36842105 4:-0.15789474 5:0.57894737 6:-0.21052632 7:0.73684211 8:-0.26315789 9:0.47368421 10:-0.10526316 11:0.68421053 12:0 13:0.57894737 14:-0.052631579 15:0.57894737 16:-0.10526316 17:0.47368421 18:0.052631579 19:0.68421053 20:0.052631579 21:0.57894737 22:0 23:0.47368421 24:0 25:0.42105263 26:0.15789474 27:0.63157895 28:0.10526316 29:0.52631579 30:0.10526316 31:0.42105263 32:0.10526316 33:0.42105263 34:0.26315789 35:0.52631579 36:0.26315789 37:0.63157895 38:0.31578947 39:0.73684211 40:0.31578947 
0.33530411954842138 1:0.16666667 2:-0.055555556 3:0.33333333 4:-0.16666667 5:0.5 6:-0.22222222 7:0.61111111 8:-0.33333333 9:0.5 10:-0.055555556 11:0.66666667 12:0 13:0.61111111 14:0 15:0.5 16:-0.055555556 17:0.44444444 18:0.055555556 19:0.61111111 20:0.055555556 21:0.5 22:0.055555556 23:0.44444444 24:0.055555556 25:0.38888889 26:0.11111111 27:0.55555556 28:0.11111111 29:0.5 30:0.11111111 31:0.44444444 32:0.11111111 33:0.38888889 34:0.22222222 35:0.5 36:0.27777778 37:0.61111111 38:0.27777778 39:0.66666667 40:0.33333333 
1 1:0.085714286 2:-0.14285714 3:0.2 4:-0.22857143 5:0.31428571 6:-0.34285714 7:0.34285714 8:-0.42857143 9:0.22857143 10:-0.2 11:0.4 12:-0.17142857 13:0.34285714 14:-0.2 15:0.25714286 16:-0.17142857 17:0.22857143 18:-0.085714286 19:0.37142857 20:-0.11428571 21:0.31428571 22:-0.11428571 23:0.25714286 24:-0.11428571 25:0.25714286 26:0 27:0.37142857 28:-0.057142857 29:0.28571429 30:-0.057142857 31:0.25714286 32:-0.057142857 33:0.25714286 34:0.057142857 35:0.4 36:0.057142857 37:0.48571429 38:0.057142857 39:0.57142857 40:0.057142857 
1 1:0.2 2:-0.1 3:0.35 4:-0.15 5:0.6 6:-0.25 7:0.75 8:-0.25 9:0.45 10:-0.05 11:0.7 12:0.05 13:0.65 14:0 15:0.55 16:-0.05 17:0.45 18:0.1 19:0.6 20:0.1 21:0.6 22:0.05 23:0.5 24:0.05 25:0.4 26:0.2 27:0.55 28:0.15 29:0.5 30:0.1 31:0.4 32:0.1 33:0.35 34:0.25 35:0.5 36:0.3 37:0.6 38:0.35 39:0.7 40:0.35 
1 1:0.0625 2:-0.125 3:0.1875 4:-0.21875 5:0.28125 6:-0.34375 7:0.34375 8:-0.4375 9:0.21875 10:-0.1875 11:0.40625 12:-0.1875 13:0.3125 14:-0.1875 15:0.25 16:-0.15625 17:0.25 18:-0.09375 19:0.40625 20:-0.15625 21:0.3125 22:-0.125 23:0.25 24:-0.125 25:0.25 26:0 27:0.40625 28:-0.09375 29:0.3125 30:-0.0625 31:0.25 32:-0.0625 33:0.28125 34:0.0625 35:0.40625 36:0.03125 37:0.46875 38:0.03125 39:0.5625 40:0.03125 
0.66469588045157857 1:0.090909091 2:-0.12121212 3:0.21212121 4:-0.24242424 5:0.3030303 6:-0.33333333 7:0.36363636 8:-0.42424242 9:0.24242424 10:-0.18181818 11:0.42424242 12:-0.18181818 13:0.33333333 14:-0.18181818 15:0.27272727 16:-0.18181818 17:0.24242424 18:-0.090909091 19:0.39393939 20:-0.12121212 21:0.33333333 22:-0.12121212 23:0.27272727 24:-0.12121212 25:0.27272727 26:-0.03030303 27:0.39393939 28:-0.090909091 29:0.33333333 30:-0.090909091 31:0.27272727 32:-0.060606061 33:0.27272727 34:0.060606061 35:0.39393939 36:0.03030303 37:0.48484848 38:0.03030303 39:0.57575758 40:0.03030303 
