svm_type one_class
kernel_type rbf
gamma 0.025000000000000001
nr_class 2
total_sv 6
rho 4.9132095277309418
SV
1 1:0.20723684 2:-0.10526316 3:0.36842105 4:-0.16118421 5:0.57894737 6:-0.21381579 7:0.73355263 8:-0.26644737 9:0.47368421 10:-0.10526316 11:0.68421053 12:-0.0032894737 13:0.57894737 14:-0.052631579 15:0.57565789 16:-0.10855263 17:0.47039474 18:0.049342105 19:0.68092105 20:0.049342105 21:0.57894737 22:0 23:0.47368421 24:0 25:0.42105263 26:0.15460526 27:0.62828947 28:0.10526316 29:0.52631579 30:0.10197368 31:0.42105263 32:0.10197368 33:0.41776316 34:0.25986842 35:0.52631579 36:0.26315789 37:0.63157895 38:0.3125 39:0.73355263 40:0.31578947 
0.39417169035066735 1:0.16666667 2:-0.059027778 3:0.33333333 4:-0.16666667 5:0.5 6:-0.22569444 7:0.61111111 8:-0.33333333 9:0.49652778 10:-0.059027778 11:0.66319444 12:-0.0034722222 13:0.60763889 14:-0.0034722222 15:0.5 16:-0.055555556 17:0.44444444 18:0.052083333 19:0.60763889 20:0.055555556 21:0.5 22:0.052083333 23:0.44097222 24:0.052083333 25:0.38888889 26:0.11111111 27:0.55555556 28:0.11111111 29:0.49652778 30:0.11111111 31:0.44097222 32:0.11111111 33:0.38541667 34:0.22222222 35:0.5 36:0.27430556 37:0.60763889 38:0.27777778 39:0.66666667 40:0.32986111 
1 1:0.085714286 2:-0.14107143 3:0.2 4:-0.22678571 5:0.31428571 6:-0.34107143 7:0.34464286 8:-0.42857143 9:0.22857143 10:-0.19821429 11:0.40178571 12:-0.17142857 13:0.34285714 14:-0.19821429 15:0.25892857 16:-0.17142857 17:0.23035714 18:-0.085714286 19:0.37321429 20:-0.1125 21:0.31607143 22:-0.11428571 23:0.25714286 24:-0.11428571 25:0.25714286 26:0 27:0.37321429 28:-0.057142857 29:0.2875 30:-0.057142857 31:0.25714286 32:-0.057142857 33:0.25892857 34:0.058928571 35:0.40178571 36:0.058928571 37:0.48571429 38:0.057142857 39:0.57142857 40:0.058928571 
1 1:0.19047619 2:-0.095238095 3:0.33630952 4:-0.14583333 5:0.57142857 6:-0.23809524 7:0.71428571 8:-0.28571429 9:0.47619048 10:-0.047619048 11:0.66666667 12:0.044642857 13:0.61904762 14:-0.0029761905 15:0.52678571 16:-0.050595238 17:0.42857143 18:0.092261905 19:0.57440476 20:0.095238095 21:0.57142857 22:0.047619048 23:0.47619048 24:0.044642857 25:0.38392857 26:0.1875 27:0.52678571 28:0.14285714 29:0.47916667 30:0.095238095 31:0.38392857 32:0.095238095 33:0.33630952 34:0.23809524 35:0.47619048 36:0.28571429 37:0.57142857 38:0.33035714 39:0.66666667 40:0.33035714 
1 1:0.062622309 2:-0.12328767 3:0.18590998 4:-0.21917808 5:0.28180039 6:-0.34246575 7:0.34246575 8:-0.43835616 9:0.21917808 10:-0.18786693 11:0.40508806 12:-0.18590998 13:0.3111546 14:-0.18590998 15:0.25048924 16:-0.15655577 17:0.24853229 18:-0.093933464 19:0.40508806 20:-0.15655577 21:0.31311155 22:-0.12524462 23:0.25048924 24:-0.12328767 25:0.25048924 26:0 27:0.40508806 28:-0.091976517 29:0.31311155 30:-0.062622309 31:0.25048924 32:-0.060665362 33:0.27984344 34:0.062622309 35:0.40508806 36:0.033268102 37:0.46966732 38:0.033268102 39:0.56164384 40:0.033268102 
0.60582830964933265 1:0.089184061 2:-0.12144213 3:0.21062619 4:-0.24098672 5:0.30360531 6:-0.33396584 7:0.36432638 8:-0.42504744 9:0.24098672 10:-0.18216319 11:0.42314991 12:-0.18216319 13:0.33396584 14:-0.18216319 15:0.27324478 16:-0.18216319 17:0.24288425 18:-0.091081594 19:0.39468691 20:-0.11954459 21:0.33206831 22:-0.12144213 23:0.27134725 24:-0.12144213 25:0.27134725 26:-0.028462998 27:0.39278937 28:-0.089184061 29:0.33206831 30:-0.089184061 31:0.27134725 32:-0.060721063 33:0.27324478 34:0.060721063 35:0.39468691 36:0.032258065 37:0.48387097 38:0.032258065 39:0.57495256 40:0.032258065 
