svm_type one_class
kernel_type rbf
gamma 0.025000000000000001
nr_class 2
total_sv 6
rho 4.8985790902226212
SV
1 1:0.30769231 2:0 3:0.53846154 4:0 5:0.76923077 6:0.15384615 7:0.92307692 8:0.30769231 9:0.53846154 10:0.23076923 11:0.76923077 12:0.38461538 13:0.84615385 14:0.46153846 15:0.92307692 16:0.46153846 17:0.38461538 18:0.30769231 19:0.69230769 20:0.61538462 21:0.92307692 22:0.84615385 23:1 24:1 25:0.30769231 26:0.38461538 27:0.53846154 28:0.69230769 29:0.69230769 30:0.84615385 31:0.84615385 32:1 33:0.15384615 34:0.46153846 35:0.23076923 36:0.61538462 37:0.30769231 38:0.61538462 39:0.38461538 40:0.69230769 
0.96431075970178215 1:0.35714286 2:0.071428571 3:0.57142857 4:0.071428571 5:0.78571429 6:0.14285714 7:0.85714286 8:0.21428571 9:0.57142857 10:0.14285714 11:0.78571429 12:0.42857143 13:0.85714286 14:0.5 15:0.92857143 16:0.5 17:0.42857143 18:0.28571429 19:0.71428571 20:0.57142857 21:0.92857143 22:0.78571429 23:1.0714286 24:0.85714286 25:0.35714286 26:0.35714286 27:0.57142857 28:0.64285714 29:0.78571429 30:0.78571429 31:0.92857143 32:0.92857143 33:0.21428571 34:0.5 35:0.42857143 36:0.64285714 37:0.5 38:0.57142857 39:0.5 40:0.57142857 
1 1:0.29411765 2:-0.058823529 3:0.41176471 4:0 5:0.64705882 6:0 7:0.76470588 8:0.11764706 9:0.47058824 10:0.058823529 11:0.76470588 12:0.17647059 13:0.70588235 14:0.17647059 15:0.58823529 16:0.11764706 17:0.35294118 18:0.17647059 19:0.70588235 20:0.35294118 21:0.82352941 22:0.52941176 23:0.94117647 24:0.64705882 25:0.29411765 26:0.29411765 27:0.58823529 28:0.41176471 29:0.76470588 30:0.52941176 31:0.88235294 32:0.64705882 33:0.29411765 34:0.35294118 35:0.47058824 36:0.41176471 37:0.52941176 38:0.35294118 39:0.47058824 40:0.29411765 
0.40923938490808975 1:0.23529412 2:-0.058823529 3:0.41176471 4:-0.058823529 5:0.58823529 6:0 7:0.70588235 8:0.058823529 9:0.41176471 10:0.058823529 11:0.64705882 12:0.23529412 13:0.70588235 14:0.17647059 15:0.64705882 16:0.11764706 17:0.35294118 18:0.17647059 19:0.64705882 20:0.35294118 21:0.82352941 22:0.47058824 23:0.94117647 24:0.58823529 25:0.29411765 26:0.29411765 27:0.52941176 28:0.41176471 29:0.70588235 30:0.52941176 31:0.82352941 32:0.64705882 33:0.23529412 34:0.35294118 35:0.35294118 36:0.41176471 37:0.41176471 38:0.41176471 39:0.41176471 40:0.41176471 
0.6264498553901281 1:0.26666667 2:0 3:0.46666667 4:0.066666667 5:0.73333333 6:0.13333333 7:0.8 8:0.33333333 9:0.33333333 10:0.13333333 11:0.6 12:0.4 13:0.73333333 14:0.4 15:0.86666667 16:0.4 17:0.26666667 18:0.26666667 19:0.53333333 20:0.53333333 21:0.66666667 22:0.8 23:0.86666667 24:1 25:0.13333333 26:0.4 27:0.4 28:0.66666667 29:0.6 30:0.8 31:0.86666667 32:1 33:0.13333333 34:0.46666667 35:0.2 36:0.66666667 37:0.26666667 38:0.66666667 39:0.33333333 40:0.6 
1 1:0.3125 2:-0.0625 3:0.5 4:-0.0625 5:0.6875 6:0 7:0.8125 8:0.0625 9:0.25 10:-0.0625 11:0.5625 12:0.125 13:0.6875 14:0.125 15:0.75 16:0.125 17:0.125 18:0.0625 19:0.5 20:0.3125 21:0.75 22:0.5 23:0.9375 24:0.6875 25:0.0625 26:0.1875 27:0.375 28:0.4375 29:0.625 30:0.625 31:0.75 32:0.75 33:0 34:0.3125 35:0.1875 36:0.5 37:0.25 38:0.4375 39:0.25 40:0.4375 
