svm_type one_class
kernel_type rbf
gamma 0.025000000000000001
nr_class 2
total_sv 6
rho 4.9021886314955667
SV
1 1:0.3062201 2:0 3:0.54066986 4:0.004784689 5:0.76555024 6:0.15789474 7:0.91866029 8:0.31100478 9:0.53588517 10:0.22966507 11:0.76555024 12:0.38755981 13:0.84688995 14:0.46411483 15:0.91866029 16:0.46411483 17:0.38755981 18:0.31100478 19:0.6937799 20:0.61244019 21:0.91866029 22:0.84210526 23:1 24:0.99521531 25:0.3062201 26:0.38755981 27:0.53588517 28:0.68899522 29:0.6937799 30:0.84688995 31:0.84688995 32:1 33:0.15789474 34:0.46411483 35:0.23444976 36:0.61244019 37:0.31100478 38:0.61722488 39:0.38755981 40:0.68899522 
0.90083823985141731 1:0.35267857 2:0.066964286 3:0.57142857 4:0.071428571 5:0.78125 6:0.13839286 7:0.85714286 8:0.21428571 9:0.56696429 10:0.14285714 11:0.78571429 12:0.42857143 13:0.85714286 14:0.49553571 15:0.92857143 16:0.49553571 17:0.42410714 18:0.28571429 19:0.71428571 20:0.57142857 21:0.92410714 22:0.78125 23:1.0669643 24:0.85714286 25:0.35267857 26:0.35714286 27:0.57142857 28:0.63839286 29:0.78571429 30:0.78125 31:0.92857143 32:0.92410714 33:0.21428571 34:0.49553571 35:0.42410714 36:0.63839286 37:0.49553571 38:0.57142857 39:0.5 40:0.57142857 
1 1:0.29151292 2:-0.055350554 3:0.41328413 4:0 5:0.64575646 6:0 7:0.76383764 8:0.11808118 9:0.46863469 10:0.062730627 11:0.76383764 12:0.18081181 13:0.70479705 14:0.17712177 15:0.5904059 16:0.12177122 17:0.35424354 18:0.18081181 19:0.70479705 20:0.35793358 21:0.82656827 22:0.53136531 23:0.94464945 24:0.64944649 25:0.29520295 26:0.29889299 27:0.5904059 28:0.41697417 29:0.76752768 30:0.53505535 31:0.88191882 32:0.65313653 33:0.29151292 34:0.35793358 35:0.47232472 36:0.41697417 37:0.52767528 38:0.35793358 39:0.46863469 40:0.29889299 
0.43941887430017562 1:0.23529412 2:-0.055147059 3:0.41544118 4:-0.055147059 5:0.59191176 6:0 7:0.70955882 8:0.0625 9:0.41544118 10:0.0625 11:0.65073529 12:0.23529412 13:0.70588235 14:0.18014706 15:0.65073529 16:0.12132353 17:0.35294118 18:0.18014706 19:0.65073529 20:0.35661765 21:0.82720588 22:0.47426471 23:0.94485294 24:0.59191176 25:0.29779412 26:0.29411765 27:0.53308824 28:0.41544118 29:0.70955882 30:0.53308824 31:0.82720588 32:0.65073529 33:0.23897059 34:0.35294118 35:0.35661765 36:0.41544118 37:0.41544118 38:0.41544118 39:0.41544118 40:0.41176471 
0.65974288584840701 1:0.27083333 2:0 3:0.47083333 4:0.0625 5:0.73333333 6:0.13333333 7:0.80416667 8:0.33333333 9:0.3375 10:0.13333333 11:0.6 12:0.4 13:0.7375 14:0.4 15:0.86666667 16:0.39583333 17:0.26666667 18:0.26666667 19:0.53333333 20:0.53333333 21:0.67083333 22:0.8 23:0.86666667 24:1 25:0.1375 26:0.39583333 27:0.4 28:0.66666667 29:0.6 30:0.8 31:0.86666667 32:1 33:0.13333333 34:0.46666667 35:0.20416667 36:0.6625 37:0.26666667 38:0.6625 39:0.33333333 40:0.6 
1 1:0.31102362 2:-0.059055118 3:0.5 4:-0.059055118 5:0.68897638 6:0 7:0.81889764 8:0.066929134 9:0.2480315 10:-0.059055118 11:0.56299213 12:0.12992126 13:0.68897638 14:0.12992126 15:0.75590551 16:0.12598425 17:0.12204724 18:0.066929134 19:0.50393701 20:0.31889764 21:0.75590551 22:0.50393701 23:0.94094488 24:0.69291339 25:0.059055118 26:0.19291339 27:0.37795276 28:0.44488189 29:0.62598425 30:0.62992126 31:0.75590551 32:0.75984252 33:-0.0039370079 34:0.31889764 35:0.18503937 36:0.50393701 37:0.2519685 38:0.44488189 39:0.2519685 40:0.44094488 
