svm_type one_class
kernel_type rbf
gamma 0.025000000000000001
nr_class 2
total_sv 6
rho 4.9679141938686371
SV
1 1:0.12467532 2:-0.041558442 3:0.20779221 4:-0.085714286 5:0.21038961 6:-0.16883117 7:0.16623377 8:-0.16883117 9:0.12467532 10:-0.25194805 11:0.20779221 12:-0.41818182 13:0.21038961 14:-0.41558442 15:0.25194805 16:-0.33506494 17:0.083116883 18:-0.29090909 19:0.12467532 20:-0.45974026 21:0.12467532 22:-0.58441558 23:0.12467532 24:-0.74805195 25:0.041558442 26:-0.25194805 27:0.044155844 28:-0.41818182 29:0.044155844 30:-0.54285714 31:0.044155844 32:-0.66493506 33:-0.038961039 34:-0.20779221 35:-0.038961039 36:-0.29350649 37:0.0025974026 38:-0.33246753 39:0.083116883 40:-0.29090909 
1 1:0.086956522 2:-0.086956522 3:0.13315217 4:-0.2173913 5:0.13315217 6:-0.3451087 7:0.043478261 8:-0.39130435 9:0.0027173913 10:-0.34782609 11:0.0027173913 12:-0.52173913 13:0.13043478 14:-0.52173913 15:0.17391304 16:-0.47826087 17:-0.04076087 18:-0.3451087 19:-0.04076087 20:-0.52173913 21:-0.043478261 22:-0.69565217 23:-0.043478261 24:-0.82608696 25:-0.08423913 26:-0.30163043 27:-0.043478261 28:-0.51902174 29:-0.08423913 30:-0.60869565 31:-0.086956522 32:-0.73913043 33:-0.08423913 34:-0.25815217 35:-0.12771739 36:-0.38858696 37:-0.043478261 38:-0.39130435 39:0.043478261 40:-0.38858696 
1 1:0.12467532 2:-0.12207792 3:0.16883117 4:-0.24675325 5:0.16883117 6:-0.37142857 7:0.16623377 8:-0.45714286 9:0.083116883 10:-0.41298701 11:0.12727273 12:-0.53766234 13:0.12727273 14:-0.54025974 15:0.16623377 16:-0.4961039 17:0 18:-0.37402597 19:0.0025974026 20:-0.57922078 21:0.0025974026 22:-0.70649351 23:0.0025974026 24:-0.83116883 25:-0.041558442 26:-0.33246753 27:-0.038961039 28:-0.54025974 29:-0.038961039 30:-0.66233766 31:-0.038961039 32:-0.78701299 33:-0.083116883 34:-0.28831169 35:-0.083116883 36:-0.41298701 37:-0.041558442 38:-0.41558442 39:0.041558442 40:-0.41298701 
0.44938843622104163 1:0.0825 2:-0.0025 3:0.2 4:-0.0825 5:0.1625 6:-0.1625 7:0.0825 8:-0.2 9:0.16 10:-0.28 11:0.1625 12:-0.4025 13:0.2025 14:-0.3225 15:0.24 16:-0.28 17:0.08 18:-0.28 19:0.0825 20:-0.48 21:0.0825 22:-0.64 23:0.08 24:-0.76 25:0 26:-0.2425 27:0.0025 28:-0.44 29:0.0025 30:-0.56 31:0.0025 32:-0.68 33:-0.08 34:-0.2025 35:-0.04 36:-0.3225 37:0 38:-0.32 39:0.04 40:-0.2425 
0.55061156377895826 1:0.089673913 2:-0.086956522 3:0.17391304 4:-0.21467391 5:0.13315217 6:-0.3451087 7:0.086956522 8:-0.38858696 9:0.046195652 10:-0.38858696 11:0.043478261 12:-0.5625 13:0.13315217 14:-0.5625 15:0.17391304 16:-0.5625 17:0 18:-0.34782609 19:0.0027173913 20:-0.5625 21:0.0027173913 22:-0.69565217 23:0.0027173913 24:-0.82608696 25:-0.043478261 26:-0.30434783 27:-0.043478261 28:-0.51902174 29:-0.043478261 30:-0.64945652 31:-0.04076087 32:-0.73913043 33:-0.086956522 34:-0.26086957 35:-0.13043478 36:-0.39130435 37:-0.086956522 38:-0.43206522 39:0 40:-0.39130435 
1 1:0.11342593 2:-0.037037037 3:0.22453704 4:-0.11111111 5:0.2962963 6:-0.1875 7:0.25925926 8:-0.26157407 9:0.18518519 10:-0.25925926 11:0.22222222 12:-0.40740741 13:0.22453704 14:-0.37037037 15:0.22453704 16:-0.29861111 17:0.11111111 18:-0.25925926 19:0.11342593 20:-0.44675926 21:0.11342593 22:-0.59259259 23:0.11111111 24:-0.7037037 25:0.037037037 26:-0.25925926 27:0.039351852 28:-0.40972222 29:0.039351852 30:-0.52083333 31:0.039351852 32:-0.63194444 33:-0.034722222 34:-0.22222222 35:0 36:-0.33333333 37:0.0023148148 38:-0.33333333 39:0.076388889 40:-0.26157407 
