svm_type one_class
kernel_type rbf
gamma 0.025000000000000001
nr_class 2
total_sv 6
rho 4.9668469727039346
SV
1 1:0.125 2:-0.041666667 3:0.20833333 4:-0.083333333 5:0.20833333 6:-0.16666667 7:0.16666667 8:-0.16666667 9:0.125 10:-0.25 11:0.20833333 12:-0.41666667 13:0.20833333 14:-0.41666667 15:0.25 16:-0.33333333 17:0.083333333 18:-0.29166667 19:0.125 20:-0.45833333 21:0.125 22:-0.58333333 23:0.125 24:-0.75 25:0.041666667 26:-0.25 27:0.041666667 28:-0.41666667 29:0.041666667 30:-0.54166667 31:0.041666667 32:-0.66666667 33:-0.041666667 34:-0.20833333 35:-0.041666667 36:-0.29166667 37:0 38:-0.33333333 39:0.083333333 40:-0.29166667 
1 1:0.086956522 2:-0.086956522 3:0.13043478 4:-0.2173913 5:0.13043478 6:-0.34782609 7:0.043478261 8:-0.39130435 9:0 10:-0.34782609 11:0 12:-0.52173913 13:0.13043478 14:-0.52173913 15:0.17391304 16:-0.47826087 17:-0.043478261 18:-0.34782609 19:-0.043478261 20:-0.52173913 21:-0.043478261 22:-0.69565217 23:-0.043478261 24:-0.82608696 25:-0.086956522 26:-0.30434783 27:-0.043478261 28:-0.52173913 29:-0.086956522 30:-0.60869565 31:-0.086956522 32:-0.73913043 33:-0.086956522 34:-0.26086957 35:-0.13043478 36:-0.39130435 37:-0.043478261 38:-0.39130435 39:0.043478261 40:-0.39130435 
1 1:0.125 2:-0.125 3:0.16666667 4:-0.25 5:0.16666667 6:-0.375 7:0.16666667 8:-0.45833333 9:0.083333333 10:-0.41666667 11:0.125 12:-0.54166667 13:0.125 14:-0.54166667 15:0.16666667 16:-0.5 17:0 18:-0.375 19:0 20:-0.58333333 21:0 22:-0.70833333 23:0 24:-0.83333333 25:-0.041666667 26:-0.33333333 27:-0.041666667 28:-0.54166667 29:-0.041666667 30:-0.66666667 31:-0.041666667 32:-0.79166667 33:-0.083333333 34:-0.29166667 35:-0.083333333 36:-0.41666667 37:-0.041666667 38:-0.41666667 39:0.041666667 40:-0.41666667 
0.40832602023139408 1:0.08 2:0 3:0.2 4:-0.08 5:0.16 6:-0.16 7:0.08 8:-0.2 9:0.16 10:-0.28 11:0.16 12:-0.4 13:0.2 14:-0.32 15:0.24 16:-0.28 17:0.08 18:-0.28 19:0.08 20:-0.48 21:0.08 22:-0.64 23:0.08 24:-0.76 25:0 26:-0.24 27:0 28:-0.44 29:0 30:-0.56 31:0 32:-0.68 33:-0.08 34:-0.2 35:-0.04 36:-0.32 37:0 38:-0.32 39:0.04 40:-0.24 
0.59167397976860592 1:0.086956522 2:-0.086956522 3:0.17391304 4:-0.2173913 5:0.13043478 6:-0.34782609 7:0.086956522 8:-0.39130435 9:0.043478261 10:-0.39130435 11:0.043478261 12:-0.56521739 13:0.13043478 14:-0.56521739 15:0.17391304 16:-0.56521739 17:0 18:-0.34782609 19:0 20:-0.56521739 21:0 22:-0.69565217 23:0 24:-0.82608696 25:-0.043478261 26:-0.30434783 27:-0.043478261 28:-0.52173913 29:-0.043478261 30:-0.65217391 31:-0.043478261 32:-0.73913043 33:-0.086956522 34:-0.26086957 35:-0.13043478 36:-0.39130435 37:-0.086956522 38:-0.43478261 39:0 40:-0.39130435 
1 1:0.11111111 2:-0.037037037 3:0.22222222 4:-0.11111111 5:0.2962963 6:-0.18518519 7:0.25925926 8:-0.25925926 9:0.18518519 10:-0.25925926 11:0.22222222 12:-0.40740741 13:0.22222222 14:-0.37037037 15:0.22222222 16:-0.2962963 17:0.11111111 18:-0.25925926 19:0.11111111 20:-0.44444444 21:0.11111111 22:-0.59259259 23:0.11111111 24:-0.7037037 25:0.037037037 26:-0.25925926 27:0.037037037 28:-0.40740741 29:0.037037037 30:-0.51851852 31:0.037037037 32:-0.62962963 33:-0.037037037 34:-0.22222222 35:0 36:-0.33333333 37:0 38:-0.33333333 39:0.074074074 40:-0.25925926 
