svm_type one_class
kernel_type rbf
gamma 0.025000000000000001
nr_class 2
total_sv 6
rho 4.9533248841762543
SV
1 1:0.1225 2:-0.12 3:0.2425 4:-0.24 5:0.3625 6:-0.36 7:0.4025 8:-0.48 9:0.36 10:-0.16 11:0.4825 12:-0.1975 13:0.44 14:-0.1975 15:0.36 16:-0.1975 17:0.36 18:-0.0775 19:0.52 20:-0.1175 21:0.44 22:-0.12 23:0.36 24:-0.1175 25:0.36 26:0.04 27:0.4825 28:-0.04 29:0.4025 30:-0.04 31:0.36 32:-0.04 33:0.3625 34:0.0825 35:0.4825 36:0.04 37:0.4025 38:0.04 39:0.3625 40:0.04 
0.72465332776983316 1:0.10248447 2:-0.10248447 3:0.2484472 4:-0.2515528 5:0.34782609 6:-0.39751553 7:0.35093168 8:-0.5 9:0.35093168 10:-0.15217391 11:0.49689441 12:-0.20186335 13:0.45031056 14:-0.20186335 15:0.39751553 16:-0.20186335 17:0.35093168 18:-0.052795031 19:0.5 20:-0.10248447 21:0.44720497 22:-0.14906832 23:0.35093168 24:-0.14906832 25:0.35093168 26:0.046583851 27:0.5 28:-0.052795031 29:0.44720497 30:-0.052795031 31:0.35093168 32:-0.049689441 33:0.35093168 34:0.096273292 35:0.49689441 36:0.046583851 37:0.45031056 38:0 39:0.39751553 40:0.046583851 
1 1:0.13636364 2:-0.09375 3:0.27272727 4:-0.22727273 5:0.31818182 6:-0.36363636 7:0.36079545 8:-0.45738636 9:0.40909091 10:-0.13920455 11:0.5 12:-0.22727273 13:0.49715909 14:-0.22727273 15:0.45170455 16:-0.22727273 17:0.40909091 18:-0.048295455 19:0.54261364 20:-0.13636364 21:0.49715909 22:-0.13636364 23:0.40625 24:-0.13636364 25:0.40909091 26:0 27:0.54261364 28:-0.048295455 29:0.45454545 30:-0.048295455 31:0.40625 32:-0.048295455 33:0.40909091 34:0.088068182 35:0.49715909 36:0.042613636 37:0.45454545 38:0 39:0.40909091 40:0 
0.27534667223016684 1:0.047619048 2:-0.14285714 3:0.098214286 4:-0.33333333 5:0.19047619 6:-0.47321429 7:0.19345238 8:-0.61607143 9:0.23809524 10:-0.28571429 11:0.38095238 12:-0.37797619 13:0.33333333 14:-0.33333333 15:0.28571429 16:-0.33333333 17:0.24107143 18:-0.19047619 19:0.38392857 20:-0.2827381 21:0.33630952 22:-0.2827381 23:0.24107143 24:-0.23809524 25:0.28571429 26:-0.13988095 27:0.38392857 28:-0.19047619 29:0.33333333 30:-0.1875 31:0.28571429 32:-0.14285714 33:0.28869048 34:-0.044642857 35:0.38095238 36:-0.095238095 37:0.33333333 38:-0.095238095 39:0.28571429 40:-0.092261905 
1 1:0.0029850746 2:-0.14328358 3:0.050746269 4:-0.28656716 5:0.098507463 6:-0.47462687 7:0.098507463 8:-0.61791045 9:0.19402985 10:-0.28358209 11:0.33731343 12:-0.37910448 13:0.33432836 14:-0.37910448 15:0.24179104 16:-0.33432836 17:0.28656716 18:-0.1880597 19:0.38208955 20:-0.28656716 21:0.33432836 22:-0.28656716 23:0.24179104 24:-0.28358209 25:0.28656716 26:-0.095522388 27:0.38208955 28:-0.23880597 29:0.33432836 30:-0.2358209 31:0.28656716 32:-0.19104478 33:0.33432836 34:-0.047761194 35:0.38208955 36:-0.14328358 37:0.33432836 38:-0.14328358 39:0.28955224 40:-0.14029851 
1 1:0.044270833 2:-0.1640625 3:0.083333333 4:-0.33072917 5:0.0859375 6:-0.45833333 7:0.044270833 8:-0.62239583 9:0.16927083 10:-0.29166667 11:0.33333333 12:-0.375 13:0.29166667 14:-0.37239583 15:0.25 16:-0.33333333 17:0.25 18:-0.20833333 19:0.375 20:-0.29166667 21:0.33333333 22:-0.2890625 23:0.25 24:-0.25 25:0.25260417 26:-0.125 27:0.37760417 28:-0.20833333 29:0.33333333 30:-0.20833333 31:0.25260417 32:-0.16666667 33:0.29427083 34:-0.080729167 35:0.375 36:-0.125 37:0.3359375 38:-0.12239583 39:0.29427083 40:-0.12239583 
