svm_type one_class
kernel_type rbf
gamma 0.025000000000000001
nr_class 2
total_sv 6
rho 4.950985461473465
SV
1 1:0.12 2:-0.12 3:0.24 4:-0.24 5:0.36 6:-0.36 7:0.4 8:-0.48 9:0.36 10:-0.16 11:0.48 12:-0.2 13:0.44 14:-0.2 15:0.36 16:-0.2 17:0.36 18:-0.08 19:0.52 20:-0.12 21:0.44 22:-0.12 23:0.36 24:-0.12 25:0.36 26:0.04 27:0.48 28:-0.04 29:0.4 30:-0.04 31:0.36 32:-0.04 33:0.36 34:0.08 35:0.48 36:0.04 37:0.4 38:0.04 39:0.36 40:0.04 
0.69883566830745925 1:0.1 2:-0.1 3:0.25 4:-0.25 5:0.35 6:-0.4 7:0.35 8:-0.5 9:0.35 10:-0.15 11:0.5 12:-0.2 13:0.45 14:-0.2 15:0.4 16:-0.2 17:0.35 18:-0.05 19:0.5 20:-0.1 21:0.45 22:-0.15 23:0.35 24:-0.15 25:0.35 26:0.05 27:0.5 28:-0.05 29:0.45 30:-0.05 31:0.35 32:-0.05 33:0.35 34:0.1 35:0.5 36:0.05 37:0.45 38:0 39:0.4 40:0.05 
1 1:0.13636364 2:-0.090909091 3:0.27272727 4:-0.22727273 5:0.31818182 6:-0.36363636 7:0.36363636 8:-0.45454545 9:0.40909091 10:-0.13636364 11:0.5 12:-0.22727273 13:0.5 14:-0.22727273 15:0.45454545 16:-0.22727273 17:0.40909091 18:-0.045454545 19:0.54545455 20:-0.13636364 21:0.5 22:-0.13636364 23:0.40909091 24:-0.13636364 25:0.40909091 26:0 27:0.54545455 28:-0.045454545 29:0.45454545 30:-0.045454545 31:0.40909091 32:-0.045454545 33:0.40909091 34:0.090909091 35:0.5 36:0.045454545 37:0.45454545 38:0 39:0.45454545 40:0 
0.3011643316925407 1:0.047619048 2:-0.14285714 3:0.095238095 4:-0.33333333 5:0.19047619 6:-0.47619048 7:0.19047619 8:-0.61904762 9:0.23809524 10:-0.28571429 11:0.38095238 12:-0.38095238 13:0.33333333 14:-0.33333333 15:0.28571429 16:-0.33333333 17:0.23809524 18:-0.19047619 19:0.38095238 20:-0.28571429 21:0.33333333 22:-0.28571429 23:0.23809524 24:-0.23809524 25:0.28571429 26:-0.14285714 27:0.38095238 28:-0.23809524 29:0.33333333 30:-0.19047619 31:0.28571429 32:-0.14285714 33:0.28571429 34:-0.047619048 35:0.38095238 36:-0.095238095 37:0.33333333 38:-0.095238095 39:0.28571429 40:-0.095238095 
1 1:0 2:-0.14285714 3:0.047619048 4:-0.28571429 5:0.095238095 6:-0.47619048 7:0.095238095 8:-0.61904762 9:0.19047619 10:-0.28571429 11:0.33333333 12:-0.38095238 13:0.33333333 14:-0.38095238 15:0.23809524 16:-0.33333333 17:0.28571429 18:-0.19047619 19:0.38095238 20:-0.28571429 21:0.33333333 22:-0.28571429 23:0.23809524 24:-0.28571429 25:0.28571429 26:-0.095238095 27:0.38095238 28:-0.23809524 29:0.33333333 30:-0.23809524 31:0.28571429 32:-0.19047619 33:0.33333333 34:-0.047619048 35:0.38095238 36:-0.14285714 37:0.33333333 38:-0.14285714 39:0.28571429 40:-0.14285714 
1 1:0.041666667 2:-0.16666667 3:0.083333333 4:-0.33333333 5:0.083333333 6:-0.45833333 7:0.041666667 8:-0.625 9:0.16666667 10:-0.29166667 11:0.33333333 12:-0.375 13:0.29166667 14:-0.375 15:0.25 16:-0.33333333 17:0.25 18:-0.20833333 19:0.375 20:-0.29166667 21:0.33333333 22:-0.29166667 23:0.25 24:-0.25 25:0.25 26:-0.125 27:0.375 28:-0.20833333 29:0.33333333 30:-0.20833333 31:0.25 32:-0.16666667 33:0.29166667 34:-0.083333333 35:0.375 36:-0.125 37:0.33333333 38:-0.125 39:0.29166667 40:-0.125 
