svm_type one_class
kernel_type rbf
gamma 0.025000000000000001
nr_class 2
total_sv 6
rho 4.986240029335022
SV
1 1:0.084078712 2:-0.085867621 3:0.1431127 4:-0.17352415 5:0.19856887 6:-0.28801431 7:0.17173524 8:-0.40071556 9:0.22898032 10:-0.11627907 11:0.42754919 12:-0.1431127 13:0.51341682 14:-0.1431127 15:0.59928444 16:-0.11627907 17:0.22898032 18:-0.030411449 19:0.37030411 20:-0.057245081 21:0.31484794 22:-0.059033989 23:0.25760286 24:-0.059033989 25:0.22898032 26:0.02862254 27:0.34168157 28:0 29:0.31305903 30:-0.02862254 31:0.25581395 32:-0.0017889088 33:0.22898032 34:0.085867621 35:0.34347048 36:0.085867621 37:0.42754919 38:0.085867621 39:0.48658318 40:0.11270125 
0.40671929502478432 1:0.091796875 2:-0.095703125 3:0.15625 4:-0.18945312 5:0.27929688 6:-0.28320312 7:0.34179688 8:-0.375 9:0.27929688 10:-0.15820312 11:0.4375 12:-0.15820312 13:0.53125 14:-0.15820312 15:0.625 16:-0.15625 17:0.27929688 18:-0.064453125 19:0.40429688 20:-0.09375 21:0.34375 22:-0.125 23:0.28125 24:-0.095703125 25:0.27929688 26:0 27:0.37304688 28:-0.033203125 29:0.3125 30:-0.0625 31:0.27929688 32:-0.033203125 33:0.27929688 34:0.0625 35:0.375 36:0.0625 37:0.43554688 38:0.060546875 39:0.5 40:0.03125 
1 1:0.062745098 2:-0.12352941 3:0.1254902 4:-0.21960784 5:0.15686275 6:-0.34313725 7:0.15686275 8:-0.4372549 9:0.21764706 10:-0.21764706 11:0.37647059 12:-0.24901961 13:0.47058824 14:-0.25098039 15:0.5627451 16:-0.25098039 17:0.21764706 18:-0.1254902 19:0.34313725 20:-0.15490196 21:0.28235294 22:-0.15686275 23:0.24901961 24:-0.15490196 25:0.21960784 26:-0.060784314 27:0.34313725 28:-0.12352941 29:0.28235294 30:-0.094117647 31:0.24901961 32:-0.092156863 33:0.24901961 34:0 35:0.34509804 36:-0.031372549 37:0.40588235 38:-0.031372549 39:0.47058824 40:-0.060784314 
1 1:0.095703125 2:-0.064453125 3:0.18945312 4:-0.15820312 5:0.28125 6:-0.25195312 7:0.3125 8:-0.34375 9:0.28125 10:-0.095703125 11:0.47070312 12:-0.125 13:0.56445312 14:-0.095703125 15:0.65625 16:-0.09375 17:0.28125 18:-0.03125 19:0.40820312 20:-0.033203125 21:0.375 22:-0.064453125 23:0.28320312 24:-0.0625 25:0.25195312 26:0.060546875 27:0.37695312 28:0 29:0.34375 30:-0.001953125 31:0.28320312 32:-0.001953125 33:0.25195312 34:0.12304688 35:0.375 36:0.12304688 37:0.43945312 38:0.12304688 39:0.53125 40:0.09375 
0.59328070497521568 1:0.064646465 2:-0.12727273 3:0.12929293 4:-0.22424242 5:0.16161616 6:-0.32323232 7:0.19191919 8:-0.45050505 9:0.22424242 10:-0.19393939 11:0.38585859 12:-0.22626263 13:0.48282828 14:-0.22626263 15:0.54949495 16:-0.22424242 17:0.22424242 18:-0.12727273 19:0.35555556 20:-0.12929293 21:0.32121212 22:-0.15959596 23:0.25656566 24:-0.12929293 25:0.22626263 26:-0.032323232 27:0.35353535 28:-0.096969697 29:0.29090909 30:-0.094949495 31:0.25656566 32:-0.094949495 33:0.25656566 34:0.002020202 35:0.35555556 36:-0.03030303 37:0.42020202 38:-0.03030303 39:0.51515152 40:-0.03030303 
1 1:0.03803132 2:-0.10738255 3:0.10961969 4:-0.2147651 5:0.17897092 6:-0.32214765 7:0.18120805 8:-0.42729306 9:0.18120805 10:-0.17897092 11:0.36017897 12:-0.2147651 13:0.46756152 14:-0.2147651 15:0.57270694 16:-0.2147651 17:0.18120805 18:-0.10738255 19:0.35794183 20:-0.17897092 21:0.2885906 22:-0.17673378 23:0.21700224 24:-0.1409396 25:0.18120805 26:-0.033557047 27:0.32438479 28:-0.10514541 29:0.28635347 30:-0.10514541 31:0.25055928 32:-0.071588367 33:0.2147651 34:0.035794183 35:0.32438479 36:0.0022371365 37:0.39597315 38:0.0022371365 39:0.50111857 40:0.0022371365 
