svm_type one_class
kernel_type rbf
gamma 0.025000000000000001
nr_class 2
total_sv 6
rho 4.9856337308883667
SV
1 1:0.085714286 2:-0.085714286 3:0.14285714 4:-0.17142857 5:0.2 6:-0.28571429 7:0.17142857 8:-0.4 9:0.22857143 10:-0.11428571 11:0.42857143 12:-0.14285714 13:0.51428571 14:-0.14285714 15:0.6 16:-0.11428571 17:0.22857143 18:-0.028571429 19:0.37142857 20:-0.057142857 21:0.31428571 22:-0.057142857 23:0.25714286 24:-0.057142857 25:0.22857143 26:0.028571429 27:0.34285714 28:0 29:0.31428571 30:-0.028571429 31:0.25714286 32:0 33:0.22857143 34:0.085714286 35:0.34285714 36:0.085714286 37:0.42857143 38:0.085714286 39:0.48571429 40:0.11428571 
0.42685237159696887 1:0.09375 2:-0.09375 3:0.15625 4:-0.1875 5:0.28125 6:-0.28125 7:0.34375 8:-0.375 9:0.28125 10:-0.15625 11:0.4375 12:-0.15625 13:0.53125 14:-0.15625 15:0.625 16:-0.15625 17:0.28125 18:-0.0625 19:0.40625 20:-0.09375 21:0.34375 22:-0.125 23:0.28125 24:-0.09375 25:0.28125 26:0 27:0.375 28:-0.03125 29:0.3125 30:-0.0625 31:0.28125 32:-0.03125 33:0.28125 34:0.0625 35:0.375 36:0.0625 37:0.4375 38:0.0625 39:0.5 40:0.03125 
1 1:0.0625 2:-0.125 3:0.125 4:-0.21875 5:0.15625 6:-0.34375 7:0.15625 8:-0.4375 9:0.21875 10:-0.21875 11:0.375 12:-0.25 13:0.46875 14:-0.25 15:0.5625 16:-0.25 17:0.21875 18:-0.125 19:0.34375 20:-0.15625 21:0.28125 22:-0.15625 23:0.25 24:-0.15625 25:0.21875 26:-0.0625 27:0.34375 28:-0.125 29:0.28125 30:-0.09375 31:0.25 32:-0.09375 33:0.25 34:0 35:0.34375 36:-0.03125 37:0.40625 38:-0.03125 39:0.46875 40:-0.0625 
1 1:0.09375 2:-0.0625 3:0.1875 4:-0.15625 5:0.28125 6:-0.25 7:0.3125 8:-0.34375 9:0.28125 10:-0.09375 11:0.46875 12:-0.125 13:0.5625 14:-0.09375 15:0.65625 16:-0.09375 17:0.28125 18:-0.03125 19:0.40625 20:-0.03125 21:0.375 22:-0.0625 23:0.28125 24:-0.0625 25:0.25 26:0.0625 27:0.375 28:0 29:0.34375 30:0 31:0.28125 32:0 33:0.25 34:0.125 35:0.375 36:0.125 37:0.4375 38:0.125 39:0.53125 40:0.09375 
0.57314762840303113 1:0.064516129 2:-0.12903226 3:0.12903226 4:-0.22580645 5:0.16129032 6:-0.32258065 7:0.19354839 8:-0.4516129 9:0.22580645 10:-0.19354839 11:0.38709677 12:-0.22580645 13:0.48387097 14:-0.22580645 15:0.5483871 16:-0.22580645 17:0.22580645 18:-0.12903226 19:0.35483871 20:-0.12903226 21:0.32258065 22:-0.16129032 23:0.25806452 24:-0.12903226 25:0.22580645 26:-0.032258065 27:0.35483871 28:-0.096774194 29:0.29032258 30:-0.096774194 31:0.25806452 32:-0.096774194 33:0.25806452 34:0 35:0.35483871 36:-0.032258065 37:0.41935484 38:-0.032258065 39:0.51612903 40:-0.032258065 
1 1:0.035714286 2:-0.10714286 3:0.10714286 4:-0.21428571 5:0.17857143 6:-0.32142857 7:0.17857143 8:-0.42857143 9:0.17857143 10:-0.17857143 11:0.35714286 12:-0.21428571 13:0.46428571 14:-0.21428571 15:0.57142857 16:-0.21428571 17:0.17857143 18:-0.10714286 19:0.35714286 20:-0.17857143 21:0.28571429 22:-0.17857143 23:0.21428571 24:-0.14285714 25:0.17857143 26:-0.035714286 27:0.32142857 28:-0.10714286 29:0.28571429 30:-0.10714286 31:0.25 32:-0.071428571 33:0.21428571 34:0.035714286 35:0.32142857 36:0 37:0.39285714 38:0 39:0.5 40:0 
