svm_type one_class
kernel_type rbf
gamma 0.025000000000000001
nr_class 2
total_sv 7
rho 4.9385757580156673
SV
1 1:0.095238095 2:-0.095238095 3:0.23809524 4:-0.23809524 5:0.19047619 6:-0.33333333 7:0.047619048 8:-0.33333333 9:0.23809524 10:-0.28571429 11:0.23809524 12:-0.47619048 13:0.23809524 14:-0.47619048 15:0.19047619 16:-0.57142857 17:0.14285714 18:-0.33333333 19:0.14285714 20:-0.52380952 21:0.14285714 22:-0.52380952 23:0.047619048 24:-0.38095238 25:0.047619048 26:-0.38095238 27:0 28:-0.57142857 29:0 30:-0.66666667 31:0 32:-0.76190476 33:-0.095238095 34:-0.38095238 35:-0.14285714 36:-0.52380952 37:-0.23809524 38:-0.61904762 39:-0.28571429 40:-0.71428571 
0.2791364366419794 1:0.13636364 2:-0.045454545 3:0.27272727 4:-0.090909091 5:0.31818182 6:-0.22727273 7:0.18181818 8:-0.22727273 9:0.27272727 10:-0.18181818 11:0.36363636 12:-0.31818182 13:0.27272727 14:-0.22727273 15:0.22727273 16:-0.18181818 17:0.22727273 18:-0.22727273 19:0.27272727 20:-0.36363636 21:0.27272727 22:-0.27272727 23:0.18181818 24:-0.18181818 25:0.13636364 26:-0.31818182 27:0.18181818 28:-0.45454545 29:0.18181818 30:-0.59090909 31:0.22727273 32:-0.63636364 33:0.045454545 34:-0.31818182 35:-0.045454545 36:-0.5 37:-0.045454545 38:-0.54545455 39:-0.090909091 40:-0.63636364 
1 1:0.11111111 2:0 3:0.25925926 4:-0.037037037 5:0.25925926 6:-0.14814815 7:0.14814815 8:-0.14814815 9:0.25925926 10:-0.14814815 11:0.37037037 12:-0.25925926 13:0.25925926 14:-0.14814815 15:0.14814815 16:-0.11111111 17:0.18518519 18:-0.18518519 19:0.2962963 20:-0.2962963 21:0.25925926 22:-0.25925926 23:0.14814815 24:-0.14814815 25:0.11111111 26:-0.25925926 27:0.18518519 28:-0.37037037 29:0.25925926 30:-0.48148148 31:0.2962963 32:-0.59259259 33:0.037037037 34:-0.2962963 35:0 36:-0.44444444 37:0 38:-0.51851852 39:-0.037037037 40:-0.62962963 
1 1:0.095238095 2:-0.14285714 3:0.19047619 4:-0.23809524 5:0.23809524 6:-0.33333333 7:0.23809524 8:-0.42857143 9:0.23809524 10:-0.33333333 11:0.23809524 12:-0.52380952 13:0.23809524 14:-0.52380952 15:0.19047619 16:-0.57142857 17:0.14285714 18:-0.38095238 19:0.14285714 20:-0.57142857 21:0.14285714 22:-0.42857143 23:0.14285714 24:-0.38095238 25:0.047619048 26:-0.38095238 27:0 28:-0.57142857 29:0 30:-0.66666667 31:0 32:-0.76190476 33:-0.047619048 34:-0.38095238 35:-0.14285714 36:-0.52380952 37:-0.19047619 38:-0.57142857 39:-0.23809524 40:-0.66666667 
1 1:0.15 2:-0.05 3:0.3 4:-0.15 5:0.35 6:-0.25 7:0.35 8:-0.3 9:0.25 10:-0.25 11:0.35 12:-0.3 13:0.3 14:-0.35 15:0.25 16:-0.25 17:0.2 18:-0.3 19:0.3 20:-0.4 21:0.25 22:-0.35 23:0.25 24:-0.45 25:0.15 26:-0.3 27:0.2 28:-0.45 29:0.25 30:-0.55 31:0.25 32:-0.65 33:0.05 34:-0.3 35:0 36:-0.45 37:0 38:-0.5 39:0 40:-0.6 
0.45187251394691419 1:0.1 2:-0.05 3:0.25 4:-0.2 5:0.2 6:-0.35 7:0.1 8:-0.35 9:0.2 10:-0.3 11:0.25 12:-0.5 13:0.2 14:-0.4 15:0.15 16:-0.3 17:0.1 18:-0.35 19:0.15 20:-0.5 21:0.1 22:-0.4 23:0.1 24:-0.35 25:0 26:-0.35 27:0 28:-0.5 29:-0.05 30:-0.65 31:-0.05 32:-0.75 33:-0.1 34:-0.35 35:-0.2 36:-0.5 37:-0.3 38:-0.55 39:-0.35 40:-0.65 
0.26899104941110641 1:0.1 2:-0.1 3:0.2 4:-0.2 5:0.2 6:-0.3 7:0.15 8:-0.35 9:0.2 10:-0.3 11:0.25 12:-0.45 13:0.15 14:-0.4 15:0.1 16:-0.35 17:0.1 18:-0.35 19:0.15 20:-0.5 21:0.1 22:-0.45 23:0.1 24:-0.35 25:0 26:-0.35 27:-0.05 28:-0.55 29:-0.05 30:-0.65 31:-0.05 32:-0.75 33:-0.1 34:-0.35 35:-0.2 36:-0.5 37:-0.25 38:-0.55 39:-0.35 40:-0.65 
