svm_type one_class
kernel_type rbf
gamma 0.025000000000000001
nr_class 2
total_sv 6
rho 4.938492476940155
SV
1 1:0.095238095 2:-0.095238095 3:0.23809524 4:-0.23809524 5:0.1875 6:-0.33630952 7:0.047619048 8:-0.33630952 9:0.23511905 10:-0.28869048 11:0.23809524 12:-0.47619048 13:0.23511905 14:-0.47916667 15:0.19047619 16:-0.57142857 17:0.13988095 18:-0.33333333 19:0.14285714 20:-0.52380952 21:0.13988095 22:-0.52380952 23:0.047619048 24:-0.38095238 25:0.044642857 26:-0.38392857 27:0 28:-0.57142857 29:0 30:-0.66666667 31:0 32:-0.76190476 33:-0.095238095 34:-0.38095238 35:-0.14583333 36:-0.52678571 37:-0.23809524 38:-0.62202381 39:-0.28571429 40:-0.71428571 
0.29541722597572739 1:0.13597734 2:-0.045325779 3:0.27478754 4:-0.090651558 5:0.31728045 6:-0.2266289 7:0.18130312 8:-0.2266289 9:0.27478754 10:-0.18413598 11:0.36260623 12:-0.32011331 13:0.27478754 14:-0.22946176 15:0.2266289 16:-0.18413598 17:0.2266289 18:-0.22946176 19:0.27478754 20:-0.36543909 21:0.27195467 22:-0.27478754 23:0.18413598 24:-0.18413598 25:0.13597734 26:-0.31728045 27:0.18130312 28:-0.45325779 29:0.18413598 30:-0.58923513 31:0.22946176 32:-0.63739377 33:0.045325779 34:-0.32011331 35:-0.042492918 36:-0.49858357 37:-0.045325779 38:-0.54674221 39:-0.087818697 40:-0.63456091 
1 1:0.11342593 2:-0.0023148148 3:0.26157407 4:-0.037037037 5:0.26157407 6:-0.14814815 7:0.14814815 8:-0.14814815 9:0.25925926 10:-0.14814815 11:0.37037037 12:-0.26157407 13:0.25925926 14:-0.15046296 15:0.15046296 16:-0.11342593 17:0.18518519 18:-0.1875 19:0.2962963 20:-0.29861111 21:0.26157407 22:-0.25925926 23:0.14814815 24:-0.14814815 25:0.11342593 26:-0.25925926 27:0.18518519 28:-0.37268519 29:0.25925926 30:-0.4837963 31:0.2962963 32:-0.59259259 33:0.039351852 34:-0.2962963 35:0.0023148148 36:-0.44444444 37:0 38:-0.52083333 39:-0.037037037 40:-0.62962963 
1 1:0.091988131 2:-0.14243323 3:0.18991098 4:-0.23738872 5:0.23442136 6:-0.33531157 7:0.23442136 8:-0.4272997 9:0.23442136 10:-0.33531157 11:0.23738872 12:-0.52225519 13:0.23442136 14:-0.52225519 15:0.18991098 16:-0.56973294 17:0.13946588 18:-0.37982196 19:0.13946588 20:-0.56973294 21:0.14243323 22:-0.43026706 23:0.14243323 24:-0.38278932 25:0.044510386 26:-0.38278932 27:0 28:-0.5727003 29:0 30:-0.66765579 31:0 32:-0.76261128 33:-0.047477745 34:-0.37982196 35:-0.14540059 36:-0.52225519 37:-0.19287834 38:-0.5727003 39:-0.24035608 40:-0.66468843 
1 1:0.146875 2:-0.053125 3:0.296875 4:-0.15 5:0.346875 6:-0.253125 7:0.35 8:-0.303125 9:0.25 10:-0.253125 11:0.346875 12:-0.303125 13:0.296875 14:-0.35 15:0.25 16:-0.253125 17:0.2 18:-0.3 19:0.296875 20:-0.403125 21:0.25 22:-0.35 23:0.25 24:-0.45 25:0.146875 26:-0.303125 27:0.196875 28:-0.45 29:0.246875 30:-0.553125 31:0.25 32:-0.65 33:0.05 34:-0.303125 35:0 36:-0.45 37:0 38:-0.503125 39:-0.003125 40:-0.6 
0.70458277402427261 1:0.096875 2:-0.1 3:0.196875 4:-0.2 5:0.196875 6:-0.303125 7:0.146875 8:-0.353125 9:0.196875 10:-0.3 11:0.246875 12:-0.45 13:0.15 14:-0.4 15:0.1 16:-0.35 17:0.1 18:-0.35 19:0.146875 20:-0.5 21:0.096875 22:-0.45 23:0.096875 24:-0.35 25:0 26:-0.353125 27:-0.05 28:-0.55 29:-0.053125 30:-0.653125 31:-0.053125 32:-0.753125 33:-0.1 34:-0.35 35:-0.2 36:-0.5 37:-0.253125 38:-0.553125 39:-0.35 40:-0.65 
