svm_type one_class
kernel_type rbf
gamma 0.025000000000000001
nr_class 2
total_sv 6
rho 4.8360991775989532
SV
1 1:0.26778243 2:0.13389121 3:0.40585774 4:0.20502092 5:0.53556485 6:0.40167364 7:0.47280335 8:0.53556485 9:0.33472803 10:0.0041841004 11:0.53974895 12:0.40585774 13:0.67364017 14:0.66945607 15:0.80334728 16:0.87029289 17:0.13389121 18:0.071129707 19:0.40167364 20:0.46861925 21:0.33891213 22:0.46861925 23:0.33472803 24:0.40167364 25:0.0041841004 26:0.20502092 27:0.26778243 28:0.53974895 29:0.26778243 30:0.47280335 31:0.20502092 32:0.40585774 33:-0.062761506 34:0.33472803 35:0.13389121 36:0.60251046 37:0.20083682 38:0.74058577 39:0.27196653 40:0.93723849 
0.87503310111627153 1:0.33160622 2:0.088082902 3:0.57512953 4:0.17098446 5:0.74093264 6:0.41968912 7:0.66321244 8:0.66321244 9:0.49740933 10:0.082901554 11:0.8238342 12:0.49740933 13:0.98963731 14:0.74611399 15:1.0725389 16:0.91709845 17:0.32642487 18:0.17098446 19:0.65803109 20:0.50259067 21:0.58031088 22:0.58031088 23:0.57512953 24:0.58031088 25:0.16580311 26:0.33160622 27:0.49222798 28:0.66321244 29:0.49740933 30:0.58549223 31:0.49740933 32:0.58031088 33:0.077720207 34:0.49740933 35:0.32642487 36:0.66839378 37:0.40932642 38:0.83419689 39:0.57512953 40:1.0777202 
1 1:0.35555556 2:0.13777778 3:0.63555556 4:0.21333333 5:0.77777778 6:0.42666667 7:0.71111111 8:0.63555556 9:0.63555556 10:0.14222222 11:0.85333333 12:0.49777778 13:0.99555556 14:0.71111111 15:1.1377778 16:0.92444444 17:0.49333333 18:0.28 19:0.77777778 20:0.56444444 21:0.56888889 22:0.49777778 23:0.49777778 24:0.42666667 25:0.35111111 26:0.42222222 27:0.56888889 28:0.63555556 29:0.56888889 30:0.56888889 31:0.42666667 32:0.49333333 33:0.21333333 34:0.56444444 35:0.35555556 36:0.77777778 37:0.49333333 38:0.92444444 39:0.56444444 40:1.1333333 
1 1:0.27272727 2:-0.045454545 3:0.41193182 4:0.045454545 5:0.54829545 6:0.13352273 7:0.54829545 8:0.26988636 9:0.40909091 10:-0.045454545 11:0.63920455 12:0.13636364 13:0.81818182 14:0.26988636 15:0.95454545 16:0.36363636 17:0.31818182 18:0.088068182 19:0.59090909 20:0.18181818 21:0.54545455 22:0.18181818 23:0.41193182 24:0.18181818 25:0.27272727 26:0.18181818 27:0.50284091 28:0.31534091 29:0.45454545 30:0.27272727 31:0.36647727 32:0.22727273 33:0.22727273 34:0.27272727 35:0.36647727 36:0.45170455 37:0.45738636 38:0.5 39:0.59090909 40:0.59090909 
1 1:0.26229508 2:0 3:0.41967213 4:-0.0032786885 5:0.52786885 6:0.15737705 7:0.57704918 8:0.26229508 9:0.41967213 10:-0.055737705 11:0.63278689 12:0.15409836 13:0.79016393 14:0.26229508 15:0.9442623 16:0.36721311 17:0.31803279 18:0.052459016 19:0.58032787 20:0.15737705 21:0.47213115 22:0.20655738 23:0.41967213 24:0.20655738 25:0.26557377 26:0.15737705 27:0.52459016 28:0.25901639 29:0.47213115 30:0.25901639 31:0.3704918 32:0.20983607 33:0.21311475 34:0.25901639 35:0.3704918 36:0.41967213 37:0.47540984 38:0.52459016 39:0.58032787 40:0.6295082 
0.12496689888372851 1:0.29874214 2:0.0031446541 3:0.44968553 4:0.050314465 5:0.50314465 6:0.20125786 7:0.55345912 8:0.25471698 9:0.40251572 10:-0.047169811 11:0.6509434 12:0.15408805 13:0.80188679 14:0.30188679 15:0.95283019 16:0.40251572 17:0.39937107 18:0.10062893 19:0.60062893 20:0.20125786 21:0.5 22:0.20440252 23:0.40251572 24:0.20125786 25:0.3490566 26:0.20125786 27:0.50314465 28:0.25471698 29:0.5 30:0.25471698 31:0.39937107 32:0.20440252 33:0.25157233 34:0.25471698 35:0.39937107 36:0.40566038 37:0.5 38:0.50628931 39:0.60062893 40:0.60691824 
