svm_type one_class
kernel_type rbf
gamma 0.025000000000000001
nr_class 2
total_sv 6
rho 4.8507758453526444
SV
1 1:0.26666667 2:0.13333333 3:0.4 4:0.2 5:0.53333333 6:0.4 7:0.46666667 8:0.53333333 9:0.33333333 10:0 11:0.53333333 12:0.4 13:0.66666667 14:0.66666667 15:0.8 16:0.86666667 17:0.13333333 18:0.066666667 19:0.4 20:0.46666667 21:0.33333333 22:0.46666667 23:0.33333333 24:0.4 25:0 26:0.2 27:0.26666667 28:0.53333333 29:0.26666667 30:0.46666667 31:0.2 32:0.4 33:-0.066666667 34:0.33333333 35:0.13333333 36:0.6 37:0.2 38:0.73333333 39:0.26666667 40:0.93333333 
1 1:0.33333333 2:0.083333333 3:0.58333333 4:0.16666667 5:0.75 6:0.41666667 7:0.66666667 8:0.66666667 9:0.5 10:0.083333333 11:0.83333333 12:0.5 13:1 14:0.75 15:1.0833333 16:0.91666667 17:0.33333333 18:0.16666667 19:0.66666667 20:0.5 21:0.58333333 22:0.58333333 23:0.58333333 24:0.58333333 25:0.16666667 26:0.33333333 27:0.5 28:0.66666667 29:0.5 30:0.58333333 31:0.5 32:0.58333333 33:0.083333333 34:0.5 35:0.33333333 36:0.66666667 37:0.41666667 38:0.83333333 39:0.58333333 40:1.0833333 
0.83329158897964173 1:0.33333333 2:0.066666667 3:0.6 4:0.2 5:0.73333333 6:0.4 7:0.66666667 8:0.6 9:0.6 10:0.13333333 11:0.8 12:0.46666667 13:0.93333333 14:0.66666667 15:1.0666667 16:0.86666667 17:0.46666667 18:0.26666667 19:0.73333333 20:0.53333333 21:0.53333333 22:0.46666667 23:0.46666667 24:0.4 25:0.33333333 26:0.4 27:0.53333333 28:0.6 29:0.53333333 30:0.53333333 31:0.4 32:0.46666667 33:0.2 34:0.53333333 35:0.33333333 36:0.73333333 37:0.46666667 38:0.86666667 39:0.53333333 40:1.0666667 
0.39902778060860528 1:0.27272727 2:-0.045454545 3:0.40909091 4:0.045454545 5:0.54545455 6:0.13636364 7:0.54545455 8:0.27272727 9:0.40909091 10:-0.045454545 11:0.63636364 12:0.13636364 13:0.81818182 14:0.27272727 15:0.95454545 16:0.36363636 17:0.31818182 18:0.090909091 19:0.59090909 20:0.18181818 21:0.54545455 22:0.18181818 23:0.40909091 24:0.18181818 25:0.27272727 26:0.18181818 27:0.5 28:0.31818182 29:0.45454545 30:0.27272727 31:0.36363636 32:0.22727273 33:0.22727273 34:0.27272727 35:0.36363636 36:0.45454545 37:0.45454545 38:0.5 39:0.59090909 40:0.59090909 
0.76768063041175294 1:0.26315789 2:0 3:0.42105263 4:0 5:0.52631579 6:0.15789474 7:0.57894737 8:0.26315789 9:0.42105263 10:-0.052631579 11:0.63157895 12:0.15789474 13:0.78947368 14:0.26315789 15:0.94736842 16:0.36842105 17:0.31578947 18:0.052631579 19:0.57894737 20:0.15789474 21:0.47368421 22:0.21052632 23:0.42105263 24:0.21052632 25:0.26315789 26:0.15789474 27:0.52631579 28:0.26315789 29:0.47368421 30:0.26315789 31:0.36842105 32:0.21052632 33:0.21052632 34:0.26315789 35:0.36842105 36:0.42105263 37:0.47368421 38:0.52631579 39:0.57894737 40:0.63157895 
1 1:0.3 2:0 3:0.45 4:0.05 5:0.5 6:0.2 7:0.55 8:0.25 9:0.4 10:-0.05 11:0.65 12:0.15 13:0.8 14:0.3 15:0.95 16:0.4 17:0.4 18:0.1 19:0.6 20:0.2 21:0.5 22:0.2 23:0.4 24:0.2 25:0.35 26:0.2 27:0.5 28:0.25 29:0.5 30:0.25 31:0.4 32:0.2 33:0.25 34:0.25 35:0.4 36:0.4 37:0.5 38:0.5 39:0.6 40:0.6 
