svm_type one_class
kernel_type rbf
gamma 0.025000000000000001
nr_class 2
total_sv 6
rho 4.9157809615135193
SV
1 1:0.17647059 2:-0.17647059 3:0.35294118 4:-0.23529412 5:0.58823529 6:-0.23529412 7:0.76470588 8:-0.17647059 9:0.52941176 10:0 11:0.76470588 12:-0.11764706 13:0.64705882 14:-0.23529412 15:0.58823529 16:-0.23529412 17:0.52941176 18:0.058823529 19:0.76470588 20:-0.11764706 21:0.64705882 22:-0.17647059 23:0.47058824 24:-0.17647059 25:0.47058824 26:0.11764706 27:0.70588235 28:-0.058823529 29:0.58823529 30:-0.11764706 31:0.47058824 32:-0.11764706 33:0.47058824 34:0.17647059 35:0.58823529 36:0 37:0.52941176 38:-0.058823529 39:0.47058824 40:-0.058823529 
0.6053708936186325 1:0.125 2:-0.125 3:0.3125 4:-0.25 5:0.5625 6:-0.25 7:0.75 8:-0.125 9:0.5 10:0.0625 11:0.6875 12:-0.0625 13:0.6875 14:-0.1875 15:0.625 16:-0.1875 17:0.5 18:0.125 19:0.6875 20:-0.0625 21:0.5625 22:-0.1875 23:0.5 24:-0.1875 25:0.4375 26:0.1875 27:0.5625 28:0 29:0.5625 30:-0.125 31:0.4375 32:-0.125 33:0.4375 34:0.125 35:0.5625 36:0 37:0.5 38:-0.0625 39:0.4375 40:-0.0625 
1 1:0.13333333 2:-0.13333333 3:0.33333333 4:-0.26666667 5:0.53333333 6:-0.26666667 7:0.73333333 8:-0.2 9:0.53333333 10:0.066666667 11:0.73333333 12:-0.066666667 13:0.66666667 14:-0.2 15:0.53333333 16:-0.2 17:0.46666667 18:0.13333333 19:0.66666667 20:-0.066666667 21:0.6 22:-0.13333333 23:0.46666667 24:-0.2 25:0.46666667 26:0.2 27:0.6 28:0 29:0.53333333 30:-0.13333333 31:0.46666667 32:-0.13333333 33:0.46666667 34:0.13333333 35:0.6 36:0 37:0.53333333 38:-0.066666667 39:0.46666667 40:-0.066666667 
1 1:0.090909091 2:-0.090909091 3:0.27272727 4:-0.090909091 5:0.63636364 6:-0.090909091 7:0.81818182 8:0 9:0.54545455 10:0.27272727 11:0.72727273 12:0.18181818 13:0.81818182 14:0.18181818 15:0.90909091 16:0.090909091 17:0.54545455 18:0.36363636 19:0.72727273 20:0.27272727 21:0.72727273 22:0.090909091 23:0.72727273 24:0 25:0.54545455 26:0.36363636 27:0.72727273 28:0.27272727 29:0.72727273 30:0.090909091 31:0.63636364 32:0 33:0.63636364 34:0.36363636 35:0.72727273 36:0.27272727 37:0.81818182 38:0.18181818 39:0.54545455 40:0 
0.3946291063813675 1:0.16666667 2:-0.083333333 3:0.33333333 4:-0.16666667 5:0.58333333 6:-0.16666667 7:0.83333333 8:-0.083333333 9:0.58333333 10:0.25 11:0.75 12:0.083333333 13:0.83333333 14:0.083333333 15:0.83333333 16:0 17:0.58333333 18:0.25 19:0.66666667 20:0.083333333 21:0.75 22:0 23:0.83333333 24:0 25:0.58333333 26:0.33333333 27:0.66666667 28:0.16666667 29:0.66666667 30:0 31:0.83333333 32:0 33:0.66666667 34:0.25 35:0.66666667 36:0.16666667 37:0.75 38:0.083333333 39:0.58333333 40:-0.083333333 
1 1:0.18181818 2:-0.090909091 3:0.45454545 4:-0.090909091 5:0.72727273 6:-0.090909091 7:0.90909091 8:0 9:0.63636364 10:0.27272727 11:0.90909091 12:0.090909091 13:0.90909091 14:0.090909091 15:0.90909091 16:0 17:0.63636364 18:0.36363636 19:0.81818182 20:0.18181818 21:0.72727273 22:0 23:0.63636364 24:-0.090909091 25:0.63636364 26:0.36363636 27:0.72727273 28:0.27272727 29:0.72727273 30:0.18181818 31:0.63636364 32:0 33:0.45454545 34:0.27272727 35:0.72727273 36:0.18181818 37:0.81818182 38:0.090909091 39:0.63636364 40:0.090909091 
