svm_type one_class
kernel_type rbf
gamma 0.025000000000000001
nr_class 2
total_sv 6
rho 4.9171567261219025
SV
0.55238687264526065 1:0.13636364 2:-0.1322314 3:0.33471074 4:-0.26446281 5:0.59504132 6:-0.26859504 7:0.73140496 8:-0.13636364 9:0.46280992 10:0.066115702 11:0.72727273 12:-0.070247934 13:0.66115702 14:-0.19834711 15:0.52892562 16:-0.20247934 17:0.46280992 18:0.1322314 19:0.72727273 20:-0.066115702 21:0.59504132 22:-0.13636364 23:0.46280992 24:-0.13636364 25:0.46280992 26:0.19834711 27:0.66115702 28:-0.0041322314 29:0.53305785 30:-0.070247934 31:0.46280992 32:-0.1322314 33:0.40082645 34:0.19834711 35:0.53305785 36:0.061983471 37:0.46694215 38:0 39:0.39669421 40:-0.0041322314 
1 1:0.17343173 2:-0.17343173 3:0.35424354 4:-0.23616236 5:0.5904059 6:-0.23616236 7:0.76383764 8:-0.17343173 9:0.52767528 10:0.0036900369 11:0.76383764 12:-0.11439114 13:0.64944649 14:-0.23247232 15:0.58671587 16:-0.23247232 17:0.52767528 18:0.062730627 19:0.76383764 20:-0.11439114 21:0.64575646 22:-0.17343173 23:0.47232472 24:-0.17712177 25:0.47232472 26:0.12177122 27:0.70479705 28:-0.05904059 29:0.5904059 30:-0.11439114 31:0.47232472 32:-0.11808118 33:0.47232472 34:0.17712177 35:0.5904059 36:0.0036900369 37:0.53136531 38:-0.055350554 39:0.46863469 40:-0.055350554 
1 1:0.13333333 2:-0.13333333 3:0.32916667 4:-0.26666667 5:0.53333333 6:-0.27083333 7:0.72916667 8:-0.2 9:0.52916667 10:0.066666667 11:0.72916667 12:-0.070833333 13:0.6625 14:-0.2 15:0.53333333 16:-0.20416667 17:0.46666667 18:0.13333333 19:0.66666667 20:-0.066666667 21:0.59583333 22:-0.1375 23:0.46666667 24:-0.2 25:0.46666667 26:0.19583333 27:0.6 28:-0.0041666667 29:0.53333333 30:-0.13333333 31:0.4625 32:-0.13333333 33:0.4625 34:0.13333333 35:0.59583333 36:0 37:0.52916667 38:-0.066666667 39:0.4625 40:-0.066666667 
1 1:0.095505618 2:-0.08988764 3:0.2752809 4:-0.095505618 5:0.62921348 6:-0.08988764 7:0.81460674 8:-0.0056179775 9:0.53932584 10:0.26966292 11:0.7247191 12:0.17977528 13:0.81460674 14:0.1741573 15:0.90449438 16:0.084269663 17:0.53932584 18:0.35393258 19:0.71910112 20:0.26404494 21:0.7247191 22:0.084269663 23:0.71910112 24:0 25:0.54494382 26:0.35955056 27:0.71910112 28:0.26404494 29:0.71910112 30:0.08988764 31:0.62921348 32:0 33:0.62921348 34:0.35393258 35:0.71910112 36:0.26404494 37:0.80898876 38:0.1741573 39:0.53932584 40:0 
0.4476131273547394 1:0.16230366 2:-0.083769634 3:0.32984293 4:-0.16230366 5:0.58115183 6:-0.16230366 7:0.83246073 8:-0.083769634 9:0.58115183 10:0.2513089 11:0.7539267 12:0.089005236 13:0.83246073 14:0.083769634 15:0.83769634 16:0 17:0.58115183 18:0.2513089 19:0.67015707 20:0.089005236 21:0.7486911 22:0.0052356021 23:0.83246073 24:0 25:0.58115183 26:0.33507853 27:0.67015707 28:0.16753927 29:0.67015707 30:0.0052356021 31:0.83246073 32:0.0052356021 33:0.66492147 34:0.2513089 35:0.67015707 36:0.16753927 37:0.7539267 38:0.089005236 39:0.58115183 40:-0.078534031 
1 1:0.17977528 2:-0.08988764 3:0.4494382 4:-0.095505618 5:0.71910112 6:-0.095505618 7:0.90449438 8:-0.0056179775 9:0.62921348 10:0.26404494 11:0.8988764 12:0.08988764 13:0.8988764 14:0.084269663 15:0.8988764 16:-0.0056179775 17:0.62921348 18:0.35393258 19:0.80898876 20:0.17977528 21:0.7247191 22:0 23:0.63483146 24:-0.08988764 25:0.62921348 26:0.35955056 27:0.71910112 28:0.26404494 29:0.7247191 30:0.1741573 31:0.62921348 32:0 33:0.4494382 34:0.26966292 35:0.7247191 36:0.17977528 37:0.80898876 38:0.08988764 39:0.62921348 40:0.084269663 
