svm_type one_class
kernel_type rbf
gamma 0.025000000000000001
nr_class 2
total_sv 8
rho 4.9593067212909698
SV
0.17418112633683153 1:0.3 2:0 3:0.45 4:-0.05 5:0.55 6:-0.05 7:0.65 8:-0.05 9:0.45 10:-0.3 11:0.65 12:-0.35 13:0.65 14:-0.2 15:0.65 16:-0.05 17:0.3 18:-0.35 19:0.45 20:-0.1 21:0.4 22:-0.05 23:0.4 24:-0.1 25:0.2 26:-0.3 27:0.3 28:-0.05 29:0.3 30:-0.05 31:0.25 32:-0.1 33:0.05 34:-0.25 35:0.15 36:-0.1 37:0.15 38:-0.05 39:0.15 40:-0.1 
0.44658197321887028 1:0.22727273 2:0.045454545 3:0.40909091 4:0 5:0.59090909 6:0 7:0.68181818 8:0.045454545 9:0.45454545 10:-0.22727273 11:0.68181818 12:-0.18181818 13:0.72727273 14:-0.045454545 15:0.72727273 16:0.045454545 17:0.40909091 18:-0.27272727 19:0.54545455 20:-0.090909091 21:0.5 22:-0.045454545 23:0.45454545 24:-0.045454545 25:0.31818182 26:-0.27272727 27:0.45454545 28:-0.090909091 29:0.40909091 30:-0.045454545 31:0.31818182 32:-0.090909091 33:0.22727273 34:-0.27272727 35:0.36363636 36:-0.13636364 37:0.31818182 38:-0.045454545 39:0.22727273 40:-0.090909091 
0.35416167315116631 1:0.2 2:-0.05 3:0.45 4:-0.15 5:0.5 6:-0.15 7:0.6 8:-0.15 9:0.4 10:-0.35 11:0.55 12:-0.4 13:0.6 14:-0.25 15:0.6 16:-0.15 17:0.3 18:-0.35 19:0.45 20:-0.2 21:0.4 22:-0.15 23:0.35 24:-0.15 25:0.2 26:-0.35 27:0.3 28:-0.15 29:0.3 30:-0.1 31:0.25 32:-0.15 33:0.1 34:-0.3 35:0.2 36:-0.2 37:0.2 38:-0.15 39:0.15 40:-0.15 
1 1:0.21052632 2:0.052631579 3:0.47368421 4:0 5:0.57894737 6:0.052631579 7:0.68421053 8:0.052631579 9:0.47368421 10:-0.21052632 11:0.68421053 12:-0.15789474 13:0.73684211 14:-0.052631579 15:0.68421053 16:0.052631579 17:0.42105263 18:-0.26315789 19:0.52631579 20:-0.052631579 21:0.47368421 22:0 23:0.42105263 24:0 25:0.31578947 26:-0.26315789 27:0.47368421 28:-0.10526316 29:0.36842105 30:-0.052631579 31:0.36842105 32:-0.052631579 33:0.21052632 34:-0.26315789 35:0.31578947 36:-0.15789474 37:0.31578947 38:-0.10526316 39:0.26315789 40:-0.10526316 
0.9150895216336985 1:0.21052632 2:0.052631579 3:0.36842105 4:0.052631579 5:0.57894737 6:0 7:0.68421053 8:0.052631579 9:0.42105263 10:-0.21052632 11:0.68421053 12:-0.21052632 13:0.73684211 14:-0.052631579 15:0.68421053 16:0.052631579 17:0.42105263 18:-0.26315789 19:0.52631579 20:-0.10526316 21:0.47368421 22:-0.052631579 23:0.47368421 24:0 25:0.31578947 26:-0.26315789 27:0.47368421 28:-0.10526316 29:0.42105263 30:-0.052631579 31:0.36842105 32:-0.052631579 33:0.26315789 34:-0.26315789 35:0.31578947 36:-0.21052632 37:0.36842105 38:-0.10526316 39:0.26315789 40:-0.10526316 
1 1:0.22222222 2:-0.055555556 3:0.44444444 4:-0.16666667 5:0.5 6:-0.16666667 7:0.55555556 8:-0.16666667 9:0.38888889 10:-0.33333333 11:0.55555556 12:-0.38888889 13:0.61111111 14:-0.27777778 15:0.55555556 16:-0.16666667 17:0.27777778 18:-0.38888889 19:0.38888889 20:-0.22222222 21:0.38888889 22:-0.16666667 23:0.38888889 24:-0.11111111 25:0.22222222 26:-0.33333333 27:0.33333333 28:-0.22222222 29:0.27777778 30:-0.16666667 31:0.27777778 32:-0.11111111 33:0.11111111 34:-0.33333333 35:0.22222222 36:-0.22222222 37:0.22222222 38:-0.16666667 39:0.16666667 40:-0.16666667 
0.1099857056594334 1:0.27777778 2:0 3:0.55555556 4:-0.055555556 5:0.55555556 6:-0.055555556 7:0.61111111 8:-0.055555556 9:0.5 10:-0.22222222 11:0.72222222 12:-0.22222222 13:0.72222222 14:-0.11111111 15:0.66666667 16:0 17:0.44444444 18:-0.27777778 19:0.55555556 20:-0.055555556 21:0.5 22:-0.055555556 23:0.44444444 24:-0.055555556 25:0.38888889 26:-0.27777778 27:0.44444444 28:-0.11111111 29:0.44444444 30:-0.055555556 31:0.38888889 32:-0.055555556 33:0.27777778 34:-0.27777778 35:0.33333333 36:-0.22222222 37:0.33333333 38:-0.11111111 39:0.33333333 40:-0.11111111 
1 1:0.23809524 2:-0.095238095 3:0.38095238 4:-0.14285714 5:0.47619048 6:-0.14285714 7:0.57142857 8:-0.14285714 9:0.38095238 10:-0.33333333 11:0.57142857 12:-0.38095238 13:0.61904762 14:-0.23809524 15:0.57142857 16:-0.14285714 17:0.28571429 18:-0.38095238 19:0.42857143 20:-0.33333333 21:0.42857143 22:-0.19047619 23:0.42857143 24:-0.14285714 25:0.23809524 26:-0.33333333 27:0.33333333 28:-0.33333333 29:0.33333333 30:-0.23809524 31:0.33333333 32:-0.19047619 33:0.14285714 34:-0.28571429 35:0.19047619 36:-0.33333333 37:0.28571429 38:-0.23809524 39:0.28571429 40:-0.19047619 
