svm_type one_class
kernel_type rbf
gamma 0.025000000000000001
nr_class 2
total_sv 7
rho 4.9598259534017677
SV
0.33486212209114058 1:0.22443182 2:0.042613636 3:0.40909091 4:0 5:0.58806818 6:0 7:0.68181818 8:0.042613636 9:0.45454545 10:-0.22727273 11:0.68181818 12:-0.18465909 13:0.72443182 14:-0.048295455 15:0.72443182 16:0.042613636 17:0.40625 18:-0.27272727 19:0.54261364 20:-0.09375 21:0.49715909 22:-0.045454545 23:0.45170455 24:-0.045454545 25:0.31534091 26:-0.27556818 27:0.45170455 28:-0.09375 29:0.40625 30:-0.048295455 31:0.31818182 32:-0.090909091 33:0.22727273 34:-0.27272727 35:0.36079545 36:-0.13636364 37:0.31534091 38:-0.048295455 39:0.22727273 40:-0.090909091 
0.45901484551592758 1:0.20062696 2:-0.047021944 3:0.45141066 4:-0.15047022 5:0.5015674 6:-0.14733542 7:0.60188088 8:-0.14733542 9:0.39811912 10:-0.34796238 11:0.55172414 12:-0.39811912 13:0.60188088 14:-0.2507837 15:0.60188088 16:-0.14733542 17:0.29780564 18:-0.35109718 19:0.44827586 20:-0.20062696 21:0.39811912 22:-0.14733542 23:0.35109718 24:-0.15047022 25:0.19749216 26:-0.34796238 27:0.30094044 28:-0.15047022 29:0.30094044 30:-0.10031348 31:0.2507837 32:-0.14733542 33:0.10031348 34:-0.29780564 35:0.20062696 36:-0.19749216 37:0.20062696 38:-0.14733542 39:0.15047022 40:-0.14733542 
1 1:0.21052632 2:0.049342105 3:0.47039474 4:-0.0032894737 5:0.57565789 6:0.049342105 7:0.68421053 8:0.049342105 9:0.47039474 10:-0.21052632 11:0.68421053 12:-0.15789474 13:0.73355263 14:-0.052631579 15:0.68421053 16:0.052631579 17:0.41776316 18:-0.26315789 19:0.52302632 20:-0.055921053 21:0.47368421 22:-0.0032894737 23:0.42105263 24:0 25:0.31578947 26:-0.26644737 27:0.47039474 28:-0.10526316 29:0.36842105 30:-0.052631579 31:0.36513158 32:-0.055921053 33:0.21052632 34:-0.26644737 35:0.31578947 36:-0.16118421 37:0.3125 38:-0.10526316 39:0.25986842 40:-0.10526316 
1 1:0.21052632 2:0.049342105 3:0.37171053 4:0.049342105 5:0.57894737 6:0 7:0.68421053 8:0.049342105 9:0.42434211 10:-0.21052632 11:0.6875 12:-0.21052632 13:0.73684211 14:-0.055921053 15:0.6875 16:0.049342105 17:0.42105263 18:-0.26315789 19:0.52960526 20:-0.10526316 21:0.47697368 22:-0.052631579 23:0.47368421 24:-0.0032894737 25:0.31907895 26:-0.26315789 27:0.47368421 28:-0.10855263 29:0.42105263 30:-0.055921053 31:0.37171053 32:-0.055921053 33:0.26644737 34:-0.26315789 35:0.31907895 36:-0.21381579 37:0.36842105 38:-0.10526316 39:0.26644737 40:-0.10526316 
1 1:0.22222222 2:-0.052083333 3:0.44791667 4:-0.16319444 5:0.50347222 6:-0.16666667 7:0.55902778 8:-0.16319444 9:0.38888889 10:-0.33333333 11:0.55902778 12:-0.38888889 13:0.61111111 14:-0.27777778 15:0.55902778 16:-0.16666667 17:0.28125 18:-0.38541667 19:0.39236111 20:-0.22222222 21:0.39236111 22:-0.16319444 23:0.38888889 24:-0.11111111 25:0.22222222 26:-0.33333333 27:0.33333333 28:-0.22222222 29:0.28125 30:-0.16319444 31:0.27777778 32:-0.11111111 33:0.11111111 34:-0.32986111 35:0.17013889 36:-0.27777778 37:0.22222222 38:-0.16319444 39:0.17013889 40:-0.16319444 
0.20612303239293184 1:0.27681661 2:0.0034602076 3:0.55363322 4:-0.055363322 5:0.55709343 6:-0.055363322 7:0.61245675 8:-0.051903114 9:0.4982699 10:-0.22145329 11:0.71972318 12:-0.22145329 13:0.72318339 14:-0.10726644 15:0.66782007 16:0 17:0.44290657 18:-0.27681661 19:0.55363322 20:-0.055363322 21:0.5017301 22:-0.051903114 23:0.44636678 24:-0.051903114 25:0.38754325 26:-0.27681661 27:0.44636678 28:-0.10726644 29:0.44290657 30:-0.051903114 31:0.39100346 32:-0.055363322 33:0.27681661 34:-0.2733564 35:0.33217993 36:-0.21799308 37:0.33564014 38:-0.10726644 39:0.33217993 40:-0.10726644 
1 1:0.23652695 2:-0.092814371 3:0.38323353 4:-0.14071856 5:0.47904192 6:-0.14371257 7:0.57185629 8:-0.14371257 9:0.38323353 10:-0.33233533 11:0.5748503 12:-0.38023952 13:0.61976048 14:-0.23952096 15:0.5748503 16:-0.14371257 17:0.28742515 18:-0.38023952 19:0.42814371 20:-0.33233533 21:0.42814371 22:-0.19161677 23:0.42814371 24:-0.14371257 25:0.23652695 26:-0.33532934 27:0.33532934 28:-0.33532934 29:0.33532934 30:-0.23952096 31:0.33532934 32:-0.18862275 33:0.14071856 34:-0.28742515 35:0.18862275 36:-0.33233533 37:0.28443114 38:-0.23952096 39:0.28443114 40:-0.19161677 
