svm_type one_class
kernel_type rbf
gamma 0.025000000000000001
nr_class 2
total_sv 6
rho 4.9334062039852142
SV
1 1:0.24 2:-0.04 3:0.36 4:-0.04 5:0.48 6:0 7:0.44 8:0.08 9:0.48 10:-0.04 11:0.68 12:-0.04 13:0.8 14:0 15:0.92 16:0 17:0.44 18:0.04 19:0.68 20:0.04 21:0.84 22:0.08 23:0.96 24:0.08 25:0.4 26:0.12 27:0.56 28:0.16 29:0.48 30:0.12 31:0.44 32:0.12 33:0.36 34:0.2 35:0.48 36:0.2 37:0.44 38:0.2 39:0.4 40:0.16 
1 1:0.14285714 2:0 3:0.33333333 4:0 5:0.47619048 6:0.047619048 7:0.61904762 8:0.047619048 9:0.52380952 10:0 11:0.71428571 12:0 13:0.80952381 14:0 15:0.95238095 16:0.047619048 17:0.47619048 18:0.095238095 19:0.71428571 20:0.095238095 21:0.85714286 22:0.095238095 23:1 24:0.095238095 25:0.42857143 26:0.14285714 27:0.61904762 28:0.19047619 29:0.52380952 30:0.19047619 31:0.42857143 32:0.14285714 33:0.38095238 34:0.23809524 35:0.52380952 36:0.28571429 37:0.47619048 38:0.23809524 39:0.42857143 40:0.23809524 
0.54496236115552998 1:0.14814815 2:-0.037037037 3:0.22222222 4:-0.11111111 5:0.37037037 6:-0.11111111 7:0.44444444 8:-0.074074074 9:0.33333333 10:-0.14814815 11:0.51851852 12:-0.22222222 13:0.59259259 14:-0.22222222 15:0.66666667 16:-0.25925926 17:0.37037037 18:-0.074074074 19:0.51851852 20:-0.14814815 21:0.66666667 22:-0.18518519 23:0.74074074 24:-0.18518519 25:0.33333333 26:0 27:0.48148148 28:0 29:0.40740741 30:0 31:0.33333333 32:0 33:0.2962963 34:0.074074074 35:0.40740741 36:0.074074074 37:0.40740741 38:0.074074074 39:0.37037037 40:0.037037037 
1 1:0.14814815 2:-0.074074074 3:0.25925926 4:-0.11111111 5:0.37037037 6:-0.14814815 7:0.44444444 8:-0.11111111 9:0.37037037 10:-0.18518519 11:0.51851852 12:-0.22222222 13:0.59259259 14:-0.22222222 15:0.7037037 16:-0.25925926 17:0.37037037 18:-0.11111111 19:0.55555556 20:-0.14814815 21:0.66666667 22:-0.18518519 23:0.74074074 24:-0.18518519 25:0.37037037 26:-0.037037037 27:0.48148148 28:-0.037037037 29:0.40740741 30:-0.037037037 31:0.33333333 32:-0.037037037 33:0.37037037 34:0.037037037 35:0.44444444 36:-0.037037037 37:0.40740741 38:0 39:0.37037037 40:0 
1 1:0.11538462 2:-0.11538462 3:0.23076923 4:-0.19230769 5:0.38461538 6:-0.23076923 7:0.5 8:-0.19230769 9:0.34615385 10:-0.19230769 11:0.53846154 12:-0.23076923 13:0.61538462 14:-0.23076923 15:0.69230769 16:-0.23076923 17:0.38461538 18:-0.11538462 19:0.57692308 20:-0.15384615 21:0.69230769 22:-0.15384615 23:0.76923077 24:-0.19230769 25:0.38461538 26:-0.038461538 27:0.5 28:-0.076923077 29:0.46153846 30:-0.11538462 31:0.38461538 32:-0.076923077 33:0.34615385 34:0.038461538 35:0.42307692 36:0 37:0.42307692 38:-0.038461538 39:0.38461538 40:-0.038461538 
0.45503763884447002 1:0.18181818 2:-0.045454545 3:0.31818182 4:-0.045454545 5:0.45454545 6:0 7:0.59090909 8:0.045454545 9:0.5 10:-0.045454545 11:0.68181818 12:-0.045454545 13:0.81818182 14:0 15:0.90909091 16:0 17:0.45454545 18:0.045454545 19:0.68181818 20:0.090909091 21:0.81818182 22:0.090909091 23:0.95454545 24:0.13636364 25:0.40909091 26:0.13636364 27:0.59090909 28:0.13636364 29:0.5 30:0.13636364 31:0.40909091 32:0.090909091 33:0.36363636 34:0.18181818 35:0.45454545 36:0.18181818 37:0.45454545 38:0.18181818 39:0.40909091 40:0.13636364 
