svm_type one_class
kernel_type rbf
gamma 0.025000000000000001
nr_class 2
total_sv 6
rho 4.9337383806705475
SV
0.42991844913816202 1:0.2375 2:-0.04 3:0.36 4:-0.04 5:0.48 6:0 7:0.44 8:0.0775 9:0.48 10:-0.0425 11:0.68 12:-0.04 13:0.8 14:-0.0025 15:0.9175 16:0 17:0.44 18:0.0375 19:0.68 20:0.04 21:0.8375 22:0.0775 23:0.9575 24:0.08 25:0.4 26:0.1175 27:0.56 28:0.16 29:0.48 30:0.12 31:0.44 32:0.12 33:0.3575 34:0.1975 35:0.4775 36:0.2 37:0.44 38:0.1975 39:0.4 40:0.16 
1 1:0.14540059 2:-0.0029673591 3:0.33531157 4:-0.0029673591 5:0.47774481 6:0.044510386 7:0.61721068 8:0.047477745 9:0.52522255 10:-0.0029673591 11:0.71513353 12:0 13:0.81008902 14:0 15:0.9495549 16:0.044510386 17:0.47774481 18:0.091988131 19:0.71513353 20:0.091988131 21:0.85756677 22:0.09495549 23:0.99703264 24:0.09495549 25:0.43026706 26:0.14243323 27:0.61721068 28:0.18991098 29:0.52522255 30:0.18694362 31:0.43026706 32:0.14243323 33:0.38278932 34:0.23738872 35:0.52225519 36:0.28189911 37:0.47774481 38:0.23738872 39:0.43026706 40:0.23442136 
0.57008155086183798 1:0.14617169 2:-0.039443155 3:0.22273782 4:-0.11136891 5:0.36890951 6:-0.1136891 7:0.44315545 8:-0.076566125 9:0.33410673 10:-0.14849188 11:0.51740139 12:-0.22273782 13:0.59396752 14:-0.225058 15:0.66821346 16:-0.25986079 17:0.36890951 18:-0.076566125 19:0.51972158 20:-0.15081206 21:0.66589327 22:-0.18561485 23:0.74013921 24:-0.18793503 25:0.33410673 26:-0.0023201856 27:0.48259861 28:-0.0023201856 29:0.40835267 30:-0.0023201856 31:0.33410673 32:0 33:0.29698376 34:0.071925754 35:0.40835267 36:0.071925754 37:0.40603248 38:0.071925754 39:0.36890951 40:0.03712297 
1 1:0.14617169 2:-0.071925754 3:0.2575406 4:-0.11136891 5:0.36890951 6:-0.14617169 7:0.44547564 8:-0.11136891 9:0.3712297 10:-0.18329466 11:0.51972158 12:-0.22041763 13:0.59396752 14:-0.22273782 15:0.70301624 16:-0.2575406 17:0.3712297 18:-0.11136891 19:0.55452436 20:-0.14849188 21:0.66589327 22:-0.18329466 23:0.7424594 24:-0.18561485 25:0.3712297 26:-0.03712297 27:0.48027842 28:-0.03712297 29:0.40835267 30:-0.034802784 31:0.33410673 32:-0.034802784 33:0.36890951 34:0.03712297 35:0.44547564 36:-0.034802784 37:0.40603248 38:0.0023201856 39:0.36890951 40:0.0023201856 
1 1:0.11538462 2:-0.11298077 3:0.23076923 4:-0.19230769 5:0.38461538 6:-0.22836538 7:0.49759615 8:-0.19230769 9:0.34615385 10:-0.19230769 11:0.53846154 12:-0.22836538 13:0.61538462 14:-0.23076923 15:0.68990385 16:-0.23076923 17:0.38461538 18:-0.11538462 19:0.57692308 20:-0.15384615 21:0.68990385 22:-0.15384615 23:0.76923077 24:-0.18990385 25:0.38221154 26:-0.038461538 27:0.5 28:-0.076923077 29:0.46153846 30:-0.11298077 31:0.38221154 32:-0.076923077 33:0.34615385 34:0.038461538 35:0.42307692 36:0 37:0.42067308 38:-0.036057692 39:0.38221154 40:-0.036057692 
1 1:0.18181818 2:-0.045454545 3:0.32102273 4:-0.045454545 5:0.45738636 6:-0.0028409091 7:0.59090909 8:0.042613636 9:0.5 10:-0.045454545 11:0.68465909 12:-0.045454545 13:0.81818182 14:-0.0028409091 15:0.90909091 16:0 17:0.45738636 18:0.042613636 19:0.68465909 20:0.088068182 21:0.82102273 22:0.088068182 23:0.95454545 24:0.13352273 25:0.41193182 26:0.13352273 27:0.59090909 28:0.13636364 29:0.50284091 30:0.13352273 31:0.41193182 32:0.090909091 33:0.36647727 34:0.18181818 35:0.45738636 36:0.18181818 37:0.45738636 38:0.17897727 39:0.41193182 40:0.13636364 
