svm_type one_class
kernel_type rbf
gamma 0.025000000000000001
nr_class 2
total_sv 5
rho 3.1920634004039097
SV
1 1:0.086720867 2:-0.17344173 3:0.1300813 4:-0.34688347 5:0.13279133 6:-0.43360434 7:0.1300813 8:-0.5203252 9:-0.043360434 10:-0.43360434 11:0 12:-0.6504065 13:0.043360434 14:-0.7398374 15:0.0027100271 16:-0.86720867 17:-0.08401084 18:-0.34688347 19:-0.17073171 20:-0.60704607 21:-0.040650407 22:-0.69647696 23:-0.040650407 24:-0.73712737 25:-0.08401084 26:-0.26287263 27:0.0027100271 28:-0.43631436 29:0.043360434 30:-0.43360434 31:0.046070461 32:-0.34688347 33:-0.043360434 34:-0.17615176 35:0.043360434 36:-0.26287263 37:0.086720867 38:-0.26287263 39:0.1300813 40:-0.26287263 
0.28171748301388216 1:0.11566265 2:-0.15180723 3:0.15421687 4:-0.26746988 5:0.19036145 6:-0.42168675 7:0.19036145 8:-0.5373494 9:0.036144578 10:-0.38554217 11:0.077108434 12:-0.57590361 13:0.077108434 14:-0.6939759 15:0.11325301 16:-0.80963855 17:-0.0024096386 18:-0.34698795 19:-0.077108434 20:-0.57831325 21:0.074698795 22:-0.6939759 23:0.11566265 24:-0.80963855 25:-0.038554217 26:-0.3060241 27:0.074698795 28:-0.4626506 29:0.11566265 30:-0.38554217 31:0.11566265 32:-0.30843373 33:-0.0024096386 34:-0.26746988 35:0.074698795 36:-0.34457831 37:0.11325301 38:-0.34457831 39:0.11566265 40:-0.26746988 
0.40376832945838009 1:0.082089552 2:-0.12189055 3:0.16169154 4:-0.20149254 5:0.19900498 6:-0.32089552 7:0.20149254 8:-0.44029851 9:0.042288557 10:-0.36069652 11:0.07960199 12:-0.5199005 13:0.07960199 14:-0.67661692 15:0.042288557 16:-0.7960199 17:0.0024875622 18:-0.31840796 19:-0.077114428 20:-0.55721393 21:0.042288557 22:-0.67661692 23:0.042288557 24:-0.79850746 25:-0.037313433 26:-0.24129353 27:0.042288557 28:-0.39800995 29:0.07960199 30:-0.36069652 31:0.082089552 32:-0.24129353 33:-0.037313433 34:-0.16169154 35:0.042288557 36:-0.23880597 37:0.082089552 38:-0.23880597 39:0.15920398 40:-0.20149254 
1 1:0.11538462 2:-0.11538462 3:0.18990385 4:-0.19471154 5:0.19230769 6:-0.34615385 7:0.19230769 8:-0.46394231 9:0.074519231 10:-0.34615385 11:0.074519231 12:-0.53846154 13:0.074519231 14:-0.65625 15:0.074519231 16:-0.77163462 17:0.036057692 18:-0.30769231 19:-0.040865385 20:-0.54086538 21:0.074519231 22:-0.65625 23:0.074519231 24:-0.80769231 25:-0.0024038462 26:-0.23317308 27:0.038461538 28:-0.38701923 29:0.076923077 30:-0.38461538 31:0.11298077 32:-0.27163462 33:-0.0024038462 34:-0.19230769 35:0.074519231 36:-0.26923077 37:0.11298077 38:-0.26923077 39:0.076923077 40:-0.27163462 
0.51451418752773792 1:0.082294264 2:-0.12219451 3:0.159601 4:-0.27930175 5:0.159601 6:-0.43890274 7:0.079800499 8:-0.51870324 9:0.0024937656 10:-0.40149626 11:0 12:-0.63840399 13:0.0024937656 14:-0.72069825 15:0.039900249 16:-0.840399 17:-0.039900249 18:-0.35910224 19:-0.11970075 20:-0.60099751 21:-0.037406484 22:-0.680798 23:0.0024937656 24:-0.75810474 25:-0.079800499 26:-0.319202 27:0.039900249 28:-0.47880299 29:0.11970075 30:-0.36159601 31:0.11970075 32:-0.27930175 33:-0.079800499 34:-0.24189526 35:0.0024937656 36:-0.35910224 37:0.082294264 38:-0.319202 39:0.11970075 40:-0.2394015 
