svm_type one_class
kernel_type rbf
gamma 0.025000000000000001
nr_class 2
total_sv 6
rho 5.1649351835250856
SV
0.30880056155125463 1:0.11566265 2:-0.15180723 3:0.15421687 4:-0.26746988 5:0.19036145 6:-0.42168675 7:0.19036145 8:-0.5373494 9:0.036144578 10:-0.38554217 11:0.077108434 12:-0.57590361 13:0.077108434 14:-0.6939759 15:0.11325301 16:-0.80963855 17:-0.0024096386 18:-0.34698795 19:-0.077108434 20:-0.57831325 21:0.074698795 22:-0.6939759 23:0.11566265 24:-0.80963855 25:-0.038554217 26:-0.3060241 27:0.074698795 28:-0.4626506 29:0.11566265 30:-0.38554217 31:0.11566265 32:-0.30843373 33:-0.0024096386 34:-0.26746988 35:0.074698795 36:-0.34457831 37:0.11325301 38:-0.34457831 39:0.11566265 40:-0.26746988 
1 1:0.082089552 2:-0.12189055 3:0.16169154 4:-0.20149254 5:0.19900498 6:-0.32089552 7:0.20149254 8:-0.44029851 9:0.042288557 10:-0.36069652 11:0.07960199 12:-0.5199005 13:0.07960199 14:-0.67661692 15:0.042288557 16:-0.7960199 17:0.0024875622 18:-0.31840796 19:-0.077114428 20:-0.55721393 21:0.042288557 22:-0.67661692 23:0.042288557 24:-0.79850746 25:-0.037313433 26:-0.24129353 27:0.042288557 28:-0.39800995 29:0.07960199 30:-0.36069652 31:0.082089552 32:-0.24129353 33:-0.037313433 34:-0.16169154 35:0.042288557 36:-0.23880597 37:0.082089552 38:-0.23880597 39:0.15920398 40:-0.20149254 
1 1:0.11538462 2:-0.11538462 3:0.18990385 4:-0.19471154 5:0.19230769 6:-0.34615385 7:0.19230769 8:-0.46394231 9:0.074519231 10:-0.34615385 11:0.074519231 12:-0.53846154 13:0.074519231 14:-0.65625 15:0.074519231 16:-0.77163462 17:0.036057692 18:-0.30769231 19:-0.040865385 20:-0.54086538 21:0.074519231 22:-0.65625 23:0.074519231 24:-0.80769231 25:-0.0024038462 26:-0.23317308 27:0.038461538 28:-0.38701923 29:0.076923077 30:-0.38461538 31:0.11298077 32:-0.27163462 33:-0.0024038462 34:-0.19230769 35:0.074519231 36:-0.26923077 37:0.11298077 38:-0.26923077 39:0.076923077 40:-0.27163462 
1 1:0.04815864 2:-0.18413598 3:0.090651558 4:-0.36543909 5:0.045325779 6:-0.50141643 7:0.045325779 8:-0.59206799 9:-0.090651558 10:-0.41076487 11:-0.2266289 12:-0.63456091 13:-0.13314448 14:-0.77053824 15:-0.045325779 16:-0.90934844 17:-0.090651558 18:-0.36260623 19:-0.087818697 20:-0.63456091 21:-0.045325779 22:-0.7733711 23:-0.045325779 24:-0.90934844 25:-0.090651558 26:-0.27478754 27:-0.045325779 28:-0.45325779 29:0.0028328612 30:-0.49858357 31:0.045325779 32:-0.54390935 33:-0.087818697 34:-0.18413598 35:-0.042492918 36:-0.27195467 37:0.045325779 38:-0.31728045 39:0.090651558 40:-0.31728045 
1 1:0.046195652 2:-0.21467391 3:0.086956522 4:-0.34782609 5:0.046195652 6:-0.47826087 7:0.046195652 8:-0.60597826 9:-0.086956522 10:-0.43478261 11:-0.17391304 12:-0.64945652 13:-0.086956522 14:-0.73913043 15:-0.043478261 16:-0.7826087 17:-0.086956522 18:-0.38858696 19:-0.04076087 20:-0.64945652 21:0 22:-0.7798913 23:0 24:-0.91032609 25:-0.086956522 26:-0.30434783 27:0.043478261 28:-0.47554348 29:0.086956522 30:-0.51902174 31:0.086956522 32:-0.60597826 33:-0.08423913 34:-0.2173913 35:0.086956522 36:-0.30434783 37:0.089673913 38:-0.30163043 39:0.086956522 40:-0.25815217 
0.89119943844874561 1:0.088068182 2:-0.17897727 3:0.090909091 4:-0.36079545 5:0.088068182 6:-0.49715909 7:0.088068182 8:-0.63636364 9:-0.090909091 10:-0.45170455 11:-0.045454545 12:-0.63636364 13:-0.045454545 14:-0.77272727 15:-0.045454545 16:-0.90909091 17:-0.090909091 18:-0.36079545 19:-0.23011364 20:-0.63352273 21:-0.090909091 22:-0.76988636 23:-0.090909091 24:-0.81534091 25:-0.09375 26:-0.27272727 27:-0.090909091 28:-0.40909091 29:-0.045454545 30:-0.45454545 31:0 32:-0.49715909 33:-0.090909091 34:-0.22443182 35:-0.048295455 36:-0.27272727 37:0.042613636 38:-0.31818182 39:0.088068182 40:-0.31818182 
