svm_type one_class
kernel_type rbf
gamma 0.025000000000000001
nr_class 2
total_sv 6
rho 4.9242396977796039
SV
0.4679987038982984 1:-0.05015674 2:-0.10031348 3:-0.19749216 4:-0.14733542 5:-0.35109718 6:-0.14733542 7:-0.4984326 8:-0.10031348 9:-0.14733542 10:0.0031347962 11:-0.10031348 12:0.15047022 13:-0.097178683 14:0.20062696 15:-0.047021944 16:0.35109718 17:0 18:0.05015674 19:0.0031347962 20:0.053291536 21:0.053291536 22:-0.10031348 23:0.05015674 24:-0.14733542 25:0.053291536 26:0.05015674 27:0.15047022 28:0 29:0.15047022 30:-0.05015674 31:0.20062696 32:-0.047021944 33:0.15047022 34:0.10031348 35:0.2539185 36:0.15047022 37:0.35423197 38:0.15047022 39:0.5015674 40:0.15360502 
1 1:-0.04815864 2:-0.042492918 3:-0.1388102 4:-0.090651558 5:-0.27478754 6:-0.13314448 7:-0.41076487 8:-0.090651558 9:-0.04815864 10:0.0028328612 11:-0.090651558 12:0.18130312 13:-0.04815864 14:0.2266289 15:-0.0028328612 16:0.36260623 17:0.045325779 18:0.093484419 19:0.087818697 20:0.13597734 21:0.13597734 22:-0.13314448 23:0.18130312 24:-0.042492918 25:0.13314448 26:0.090651558 27:0.22379603 28:0 29:0.22379603 30:0 31:0.26912181 32:-0.042492918 33:0.22379603 34:0.090651558 35:0.36260623 36:0.13597734 37:0.49575071 38:0.13597734 39:0.58923513 40:0.13597734 
0.7986106410676248 1:0 2:-0.003125 3:-0.05 4:-0.1 5:-0.253125 6:-0.05 7:-0.4 8:0.046875 9:-0.103125 10:0.15 11:-0.25 12:0.346875 13:-0.3 14:0.496875 15:-0.353125 16:0.6 17:-0.003125 18:0.296875 19:0.1 20:0.2 21:0.1 22:0 23:0.046875 24:0 25:0.096875 26:0.346875 27:0.246875 28:0.2 29:0.15 30:0.046875 31:0.1 32:0.046875 33:0.15 34:0.346875 35:0.25 36:0.4 37:0.35 38:0.45 39:0.45 40:0.546875 
1 1:-0.080729167 2:-0.083333333 3:-0.20572917 4:-0.12239583 5:-0.4140625 6:-0.080729167 7:-0.5390625 8:0 9:-0.20572917 10:0.044270833 11:-0.25 12:0.083333333 13:-0.33333333 14:0.33333333 15:-0.375 16:0.4609375 17:-0.12239583 18:0.125 19:-0.125 20:0.125 21:-0.080729167 22:-0.0390625 23:-0.083333333 24:-0.0390625 25:-0.0390625 26:0.16927083 27:0.0026041667 28:0.0859375 29:0.083333333 30:0 31:0.0026041667 32:0.083333333 33:0.083333333 34:0.25 35:0.125 36:0.25260417 37:0.20833333 38:0.29166667 39:0.25 40:0.33333333 
0.73339065503407674 1:-0.047477745 2:-0.09495549 3:-0.14243323 4:-0.14243323 5:-0.33234421 6:-0.091988131 7:-0.43026706 8:0.0029673591 9:-0.09495549 10:0.0029673591 11:-0.18991098 12:0.23738872 13:-0.19287834 14:0.33531157 15:-0.24035608 16:0.52225519 17:0.044510386 18:0.097922849 19:0.13946588 20:-0.044510386 21:0.091988131 22:-0.18991098 23:0.044510386 24:-0.18991098 25:0.14243323 26:0.097922849 27:0.23738872 28:-0.044510386 29:0.18991098 30:-0.14243323 31:0.09495549 32:-0.18991098 33:0.23442136 34:0.097922849 35:0.3768546 36:0.14540059 37:0.47477745 38:0.18991098 39:0.56973294 40:0.23738872 
1 1:0 2:0 3:-0.086956522 4:-0.043478261 5:-0.30434783 6:-0.0027173913 7:-0.43478261 8:0.04076087 9:-0.089673913 10:0.13043478 11:-0.26086957 12:0.3451087 13:-0.30434783 14:0.43478261 15:-0.35054348 16:0.56521739 17:0 18:0.2173913 19:0.086956522 20:0.21467391 21:0.086956522 22:0.04076087 23:0.04076087 24:0.04076087 25:0.086956522 26:0.26086957 27:0.17391304 28:0.25815217 29:0.17391304 30:0.12771739 31:0.086956522 32:0.086956522 33:0.13043478 34:0.3451087 35:0.17391304 36:0.43206522 37:0.26086957 38:0.47826087 39:0.34782609 40:0.56521739 
