svm_type one_class
kernel_type rbf
gamma 0.025000000000000001
nr_class 2
total_sv 8
rho 4.9228672845882286
SV
0.14599248642337431 1:-0.10714286 2:-0.10714286 3:-0.17857143 4:-0.17857143 5:-0.39285714 6:-0.14285714 7:-0.53571429 8:-0.14285714 9:-0.21428571 10:0.035714286 11:-0.25 12:0.17857143 13:-0.28571429 14:0.32142857 15:-0.32142857 16:0.46428571 17:-0.10714286 18:0.10714286 19:-0.035714286 20:0.035714286 21:-0.035714286 22:-0.14285714 23:-0.071428571 24:-0.10714286 25:0 26:0.10714286 27:0.071428571 28:0 29:0.035714286 30:-0.10714286 31:0 32:-0.071428571 33:0.035714286 34:0.10714286 35:0.14285714 36:0.17857143 37:0.25 38:0.21428571 39:0.32142857 40:0.28571429 
0.20784710458800995 1:-0.05 2:-0.1 3:-0.2 4:-0.15 5:-0.35 6:-0.15 7:-0.5 8:-0.1 9:-0.15 10:0 11:-0.1 12:0.15 13:-0.1 14:0.2 15:-0.05 16:0.35 17:0 18:0.05 19:0 20:0.05 21:0.05 22:-0.1 23:0.05 24:-0.15 25:0.05 26:0.05 27:0.15 28:0 29:0.15 30:-0.05 31:0.2 32:-0.05 33:0.15 34:0.1 35:0.25 36:0.15 37:0.35 38:0.15 39:0.5 40:0.15 
1 1:-0.045454545 2:-0.045454545 3:-0.13636364 4:-0.090909091 5:-0.27272727 6:-0.13636364 7:-0.40909091 8:-0.090909091 9:-0.045454545 10:0 11:-0.090909091 12:0.18181818 13:-0.045454545 14:0.22727273 15:0 16:0.36363636 17:0.045454545 18:0.090909091 19:0.090909091 20:0.13636364 21:0.13636364 22:-0.13636364 23:0.18181818 24:-0.045454545 25:0.13636364 26:0.090909091 27:0.22727273 28:0 29:0.22727273 30:0 31:0.27272727 32:-0.045454545 33:0.22727273 34:0.090909091 35:0.36363636 36:0.13636364 37:0.5 38:0.13636364 39:0.59090909 40:0.13636364 
0.69298773974114791 1:0 2:-0.05 3:-0.05 4:-0.1 5:-0.25 6:-0.05 7:-0.4 8:0.05 9:-0.1 10:0.15 11:-0.25 12:0.35 13:-0.3 14:0.5 15:-0.35 16:0.6 17:0 18:0.3 19:0.1 20:0.2 21:0.1 22:0 23:0.05 24:0 25:0.1 26:0.35 27:0.25 28:0.2 29:0.15 30:0.05 31:0.1 32:0.05 33:0.15 34:0.35 35:0.25 36:0.4 37:0.35 38:0.45 39:0.45 40:0.55 
1 1:-0.083333333 2:-0.083333333 3:-0.20833333 4:-0.125 5:-0.41666667 6:-0.083333333 7:-0.54166667 8:0 9:-0.20833333 10:0.041666667 11:-0.25 12:0.083333333 13:-0.33333333 14:0.33333333 15:-0.375 16:0.45833333 17:-0.125 18:0.125 19:-0.125 20:0.125 21:-0.083333333 22:-0.041666667 23:-0.083333333 24:-0.041666667 25:-0.041666667 26:0.16666667 27:0 28:0.083333333 29:0.083333333 30:0 31:0 32:0.083333333 33:0.083333333 34:0.25 35:0.125 36:0.25 37:0.20833333 38:0.29166667 39:0.25 40:0.33333333 
0.79215289541199008 1:-0.047619048 2:-0.095238095 3:-0.14285714 4:-0.14285714 5:-0.33333333 6:-0.095238095 7:-0.42857143 8:0 9:-0.095238095 10:0 11:-0.19047619 12:0.23809524 13:-0.19047619 14:0.33333333 15:-0.23809524 16:0.52380952 17:0.047619048 18:0.095238095 19:0.14285714 20:-0.047619048 21:0.095238095 22:-0.19047619 23:0.047619048 24:-0.19047619 25:0.14285714 26:0.095238095 27:0.23809524 28:-0.047619048 29:0.19047619 30:-0.14285714 31:0.095238095 32:-0.19047619 33:0.23809524 34:0.095238095 35:0.38095238 36:0.14285714 37:0.47619048 38:0.19047619 39:0.57142857 40:0.23809524 
1 1:0 2:0 3:-0.086956522 4:-0.043478261 5:-0.30434783 6:0 7:-0.43478261 8:0.043478261 9:-0.086956522 10:0.13043478 11:-0.26086957 12:0.34782609 13:-0.30434783 14:0.43478261 15:-0.34782609 16:0.56521739 17:0 18:0.2173913 19:0.086956522 20:0.2173913 21:0.086956522 22:0.043478261 23:0.043478261 24:0.043478261 25:0.043478261 26:0.13043478 27:0.17391304 28:0.26086957 29:0.17391304 30:0.13043478 31:0.086956522 32:0.086956522 33:0.13043478 34:0.34782609 35:0.17391304 36:0.43478261 37:0.26086957 38:0.47826087 39:0.34782609 40:0.56521739 
0.16101977383547772 1:0.047619048 2:-0.047619048 3:-0.047619048 4:-0.047619048 5:-0.28571429 6:0 7:-0.42857143 8:0.095238095 9:0 10:0.047619048 11:-0.095238095 12:0.14285714 13:-0.19047619 14:0.38095238 15:-0.19047619 16:0.57142857 17:0.095238095 18:0.14285714 19:0.14285714 20:0.14285714 21:0.14285714 22:0.047619048 23:0.14285714 24:0.14285714 25:0.19047619 26:0.19047619 27:0.23809524 28:0.14285714 29:0.23809524 30:0.095238095 31:0.23809524 32:0.14285714 33:0.23809524 34:0.23809524 35:0.38095238 36:0.33333333 37:0.47619048 38:0.33333333 39:0.57142857 40:0.38095238 
